tree
version=v4
num_class=1
num_tree_per_iteration=1
label_index=0
max_feature_idx=739
objective=binary sigmoid:1
feature_names=P_2_mean P_2_max P_2_min P_2_std D_39_mean D_39_max D_39_min D_39_std B_1_mean B_1_max B_1_min B_1_std B_2_mean B_2_max B_2_min B_2_std R_1_mean R_1_max R_1_min R_1_std S_3_mean S_3_max S_3_min S_3_std D_41_mean D_41_max D_41_min D_41_std B_3_mean B_3_max B_3_min B_3_std D_42_mean D_42_max D_42_min D_42_std D_43_mean D_43_max D_43_min D_43_std D_44_mean D_44_max D_44_min D_44_std B_4_mean B_4_max B_4_min B_4_std D_45_mean D_45_max D_45_min D_45_std B_5_mean B_5_max B_5_min B_5_std R_2_mean R_2_max R_2_min R_2_std D_46_mean D_46_max D_46_min D_46_std D_47_mean D_47_max D_47_min D_47_std D_48_mean D_48_max D_48_min D_48_std D_49_mean D_49_max D_49_min D_49_std B_6_mean B_6_max B_6_min B_6_std B_7_mean B_7_max B_7_min B_7_std B_8_mean B_8_max B_8_min B_8_std D_50_mean D_50_max D_50_min D_50_std D_51_mean D_51_max D_51_min D_51_std B_9_mean B_9_max B_9_min B_9_std R_3_mean R_3_max R_3_min R_3_std D_52_mean D_52_max D_52_min D_52_std P_3_mean P_3_max P_3_min P_3_std B_10_mean B_10_max B_10_min B_10_std D_53_mean D_53_max D_53_min D_53_std S_5_mean S_5_max S_5_min S_5_std B_11_mean B_11_max B_11_min B_11_std S_6_mean S_6_max S_6_min S_6_std D_54_mean D_54_max D_54_min D_54_std R_4_mean R_4_max R_4_min R_4_std S_7_mean S_7_max S_7_min S_7_std B_12_mean B_12_max B_12_min B_12_std S_8_mean S_8_max S_8_min S_8_std D_55_mean D_55_max D_55_min D_55_std D_56_mean D_56_max D_56_min D_56_std B_13_mean B_13_max B_13_min B_13_std R_5_mean R_5_max R_5_min R_5_std D_58_mean D_58_max D_58_min D_58_std S_9_mean S_9_max S_9_min S_9_std B_14_mean B_14_max B_14_min B_14_std D_59_mean D_59_max D_59_min D_59_std D_60_mean D_60_max D_60_min D_60_std D_61_mean D_61_max D_61_min D_61_std B_15_mean B_15_max B_15_min B_15_std S_11_mean S_11_max S_11_min S_11_std D_62_mean D_62_max D_62_min D_62_std D_65_mean D_65_max D_65_min D_65_std B_16_mean B_16_max B_16_min B_16_std B_17_mean B_17_max B_17_min B_17_std B_18_mean B_18_max B_18_min B_18_std B_19_mean B_19_max B_19_min B_19_std D_66_mean D_66_max D_66_min D_66_std B_20_mean B_20_max B_20_min B_20_std D_68_mean D_68_max D_68_min D_68_std S_12_mean S_12_max S_12_min S_12_std R_6_mean R_6_max R_6_min R_6_std S_13_mean S_13_max S_13_min S_13_std B_21_mean B_21_max B_21_min B_21_std D_69_mean D_69_max D_69_min D_69_std B_22_mean B_22_max B_22_min B_22_std D_70_mean D_70_max D_70_min D_70_std D_71_mean D_71_max D_71_min D_71_std D_72_mean D_72_max D_72_min D_72_std S_15_mean S_15_max S_15_min S_15_std B_23_mean B_23_max B_23_min B_23_std D_73_mean D_73_max D_73_min D_73_std P_4_mean P_4_max P_4_min P_4_std D_74_mean D_74_max D_74_min D_74_std D_75_mean D_75_max D_75_min D_75_std D_76_mean D_76_max D_76_min D_76_std B_24_mean B_24_max B_24_min B_24_std R_7_mean R_7_max R_7_min R_7_std D_77_mean D_77_max D_77_min D_77_std B_25_mean B_25_max B_25_min B_25_std B_26_mean B_26_max B_26_min B_26_std D_78_mean D_78_max D_78_min D_78_std D_79_mean D_79_max D_79_min D_79_std R_8_mean R_8_max R_8_min R_8_std R_9_mean R_9_max R_9_min R_9_std S_16_mean S_16_max S_16_min S_16_std D_80_mean D_80_max D_80_min D_80_std R_10_mean R_10_max R_10_min R_10_std R_11_mean R_11_max R_11_min R_11_std B_27_mean B_27_max B_27_min B_27_std D_81_mean D_81_max D_81_min D_81_std D_82_mean D_82_max D_82_min D_82_std S_17_mean S_17_max S_17_min S_17_std R_12_mean R_12_max R_12_min R_12_std B_28_mean B_28_max B_28_min B_28_std R_13_mean R_13_max R_13_min R_13_std D_83_mean D_83_max D_83_min D_83_std R_14_mean R_14_max R_14_min R_14_std R_15_mean R_15_max R_15_min R_15_std D_84_mean D_84_max D_84_min D_84_std R_16_mean R_16_max R_16_min R_16_std B_29_mean B_29_max B_29_min B_29_std B_30_mean B_30_max B_30_min B_30_std S_18_mean S_18_max S_18_min S_18_std D_86_mean D_86_max D_86_min D_86_std D_87_mean D_87_max D_87_min D_87_std R_17_mean R_17_max R_17_min R_17_std R_18_mean R_18_max R_18_min R_18_std D_88_mean D_88_max D_88_min D_88_std S_19_mean S_19_max S_19_min S_19_std R_19_mean R_19_max R_19_min R_19_std B_32_mean B_32_max B_32_min B_32_std S_20_mean S_20_max S_20_min S_20_std R_20_mean R_20_max R_20_min R_20_std R_21_mean R_21_max R_21_min R_21_std B_33_mean B_33_max B_33_min B_33_std D_89_mean D_89_max D_89_min D_89_std R_22_mean R_22_max R_22_min R_22_std R_23_mean R_23_max R_23_min R_23_std D_91_mean D_91_max D_91_min D_91_std D_92_mean D_92_max D_92_min D_92_std D_93_mean D_93_max D_93_min D_93_std D_94_mean D_94_max D_94_min D_94_std R_24_mean R_24_max R_24_min R_24_std R_25_mean R_25_max R_25_min R_25_std D_96_mean D_96_max D_96_min D_96_std S_22_mean S_22_max S_22_min S_22_std S_23_mean S_23_max S_23_min S_23_std S_24_mean S_24_max S_24_min S_24_std S_25_mean S_25_max S_25_min S_25_std S_26_mean S_26_max S_26_min S_26_std D_102_mean D_102_max D_102_min D_102_std D_103_mean D_103_max D_103_min D_103_std D_104_mean D_104_max D_104_min D_104_std D_105_mean D_105_max D_105_min D_105_std D_106_mean D_106_max D_106_min D_106_std D_107_mean D_107_max D_107_min D_107_std B_36_mean B_36_max B_36_min B_36_std B_37_mean B_37_max B_37_min B_37_std R_26_mean R_26_max R_26_min R_26_std R_27_mean R_27_max R_27_min R_27_std B_38_mean B_38_max B_38_min B_38_std D_108_mean D_108_max D_108_min D_108_std D_109_mean D_109_max D_109_min D_109_std D_110_mean D_110_max D_110_min D_110_std D_111_mean D_111_max D_111_min D_111_std B_39_mean B_39_max B_39_min B_39_std D_112_mean D_112_max D_112_min D_112_std B_40_mean B_40_max B_40_min B_40_std S_27_mean S_27_max S_27_min S_27_std D_113_mean D_113_max D_113_min D_113_std D_114_mean D_114_max D_114_min D_114_std D_115_mean D_115_max D_115_min D_115_std D_116_mean D_116_max D_116_min D_116_std D_117_mean D_117_max D_117_min D_117_std D_118_mean D_118_max D_118_min D_118_std D_119_mean D_119_max D_119_min D_119_std D_120_mean D_120_max D_120_min D_120_std D_121_mean D_121_max D_121_min D_121_std D_122_mean D_122_max D_122_min D_122_std D_123_mean D_123_max D_123_min D_123_std D_124_mean D_124_max D_124_min D_124_std D_125_mean D_125_max D_125_min D_125_std D_126_mean D_126_max D_126_min D_126_std D_127_mean D_127_max D_127_min D_127_std D_128_mean D_128_max D_128_min D_128_std D_129_mean D_129_max D_129_min D_129_std B_41_mean B_41_max B_41_min B_41_std B_42_mean B_42_max B_42_min B_42_std D_130_mean D_130_max D_130_min D_130_std D_131_mean D_131_max D_131_min D_131_std D_132_mean D_132_max D_132_min D_132_std D_133_mean D_133_max D_133_min D_133_std R_28_mean R_28_max R_28_min R_28_std D_134_mean D_134_max D_134_min D_134_std D_135_mean D_135_max D_135_min D_135_std D_136_mean D_136_max D_136_min D_136_std D_137_mean D_137_max D_137_min D_137_std D_138_mean D_138_max D_138_min D_138_std D_139_mean D_139_max D_139_min D_139_std D_140_mean D_140_max D_140_min D_140_std D_141_mean D_141_max D_141_min D_141_std D_142_mean D_142_max D_142_min D_142_std D_143_mean D_143_max D_143_min D_143_std D_144_mean D_144_max D_144_min D_144_std D_145_mean D_145_max D_145_min D_145_std
feature_infos=[-0.29094460606575012:1.0099416971206665] [-0.23775032162666321:1.0099997520446777] [-0.45895484089851379:1.0099416971206665] [1.2644053981603065e-07:0.46895718574523926] [4.5720285015704576e-06:4.5943083763122559] [4.5720285015704576e-06:5.3627939224243164] [1.2280860772762026e-08:4.4448075294494629] [3.104049483226845e-06:3.0585987567901611] [-0.26742932200431824:1.3240594863891602] [-0.035661831498146057:1.324060320854187] [-1.8325371742248535:1.3240594863891602] [7.8103380474203732e-07:1.0802384614944458] [2.0689751181635074e-05:1.0099018812179565] [2.0689751181635074e-05:1.0099999904632568] [3.4194735576420499e-07:1.0099018812179565] [2.5288109100074507e-06:0.71280562877655029] [6.4407203126393142e-07:1.7541071176528931] [6.4407203126393142e-07:3.2562844753265381] [1.5342229708892319e-09:1.7541071176528931] [3.0714516014995752e-06:1.2985358238220215] [-0.36920833587646484:3.8608987331390381] [-0.31168210506439209:5.4828882217407227] [-0.49153873324394226:2.6296625137329102] [2.834375663951505e-06:1.9515227079391479] [6.819150712544797e-06:5.7314910888671875] [6.819150712544797e-06:8.9888067245483398] [5.5665450027220231e-10:4.6373038291931152] [1.9539015738700982e-06:3.6769843101501465] [5.2064535793761024e-07:1.4005521535873413] [5.2064535793761024e-07:1.5965315103530884] [1.4636494682918055e-08:1.3765023946762085] [2.7540331757336389e-06:0.59914541244506836] [-0.00022780931612942368:4.1842508316040039] [-0.00022780931612942368:4.1890435218811035] [-0.00045433026389218867:4.1820311546325684] [8.9562050220592937e-08:2.6574280261993408] [3.3234340662602335e-05:6.2083988189697266] [3.3234340662602335e-05:10.075604438781738] [2.8766470450136694e-07:4.9201164245605469] [2.6605198399920482e-07:3.2727570533752441] [2.0962665985280182e-06:5.1008152961730957] [2.0962665985280182e-06:5.6347236633300781] [5.8523377255426112e-09:4.0054659843444824] [8.3141244999751507e-08:1.301608681678772] [2.3281456833501579e-06:3.074040412902832] [2.3281456833501579e-06:19.803285598754883] [3.0993319022343258e-09:2.6182458400726318] [3.8985834294180677e-07:5.4817681312561035] [6.0707134252879769e-06:1.5905171632766724] [6.0707134252879769e-06:1.6100020408630371] [7.4545447148466337e-08:1.5745277404785156] [2.5222254862455884e-07:0.70817428827285767] [6.3340207816509064e-06:42.917926788330078] [6.3340207816509064e-06:60.936630249023438] [2.8048216527132297e-11:28.871982574462891] [2.7066178631685034e-07:16.468475341796875] [2.9740172067249659e-06:1.009968638420105] [2.9740172067249659e-06:1.0099997520446777] [8.265748085989344e-10:1.009968638420105] [3.0154753858369077e-06:0.71250283718109131] [-3.8403222560882568:2.9237627983093262] [-0.72323530912399292:16.319900512695312] [-17.289342880249023:2.9237627983093262] [5.14191560796462e-06:9.5960664749145508] [-0.026602309197187424:1.3715779781341553] [-0.026589047163724899:1.6430078744888306] [-0.026621641591191292:1.3624210357666016] [3.7932164786980138e-07:0.70560222864151001] [-0.00950617715716362:3.3011741638183594] [-0.00950617715716362:4.1038351058959961] [-0.0096135595813393593:3.1294829845428467] [4.7942040737325442e-07:1.5587835311889648] [1.7077310985769145e-05:24.295974731445312] [1.7077310985769145e-05:24.319475173950195] [4.6862487579346634e-06:24.272472381591797] [8.2186352301505394e-07:10.444598197937012] [-0.0012445523170754313:336.87942504882812] [-0.00073820637771859765:1214.5169677734375] [-0.0050752349197864532:60.056247711181641] [8.471516593999695e-06:380.35037231445312] [-0.21629014611244202:1.2527381181716919] [-0.014112912118434906:1.2527501583099365] [-1.5132567882537842:1.2527381181716919] [2.6131046979571693e-06:0.87690979242324829] [6.1335529608186334e-05:1.0097408294677734] [6.1335529608186334e-05:1.0190789699554443] [1.1537036215258922e-08:1.0097408294677734] [3.3717478231665154e-07:0.71219331026077271] [-3.1079878807067871:42.5162353515625] [-1.6104192733764648:244.04266357421875] [-5.4509305953979492:30.061809539794922] [2.1073424250062089e-07:73.870796203613281] [1.9867588889610488e-06:2.5441617965698242] [1.9867588889610488e-06:2.6766059398651123] [3.3517342235001024e-09:2.3366291522979736] [4.2146848500124179e-07:0.72066199779510498] [4.4697048906527925e-06:7.4366202354431152] [4.4697048906527925e-06:27.424858093261719] [7.3696644342646778e-09:6.1888308525085449] [6.7569958446256351e-06:9.778132438659668] [3.0343564958457137e-06:7.2911930084228516] [3.0343564958457137e-06:11.602601051330566] [3.8233380905694503e-09:5.2014098167419434] [5.7951915266585274e-08:3.455601692199707] [-0.0037542469799518585:1.0095901489257812] [-0.0029906274285167456:1.0099998712539673] [-0.0070388568565249443:1.0095901489257812] [2.0651955310313497e-06:0.71305674314498901] [-0.9346153736114502:1.9604982137680054] [-0.9346153736114502:2.3534865379333496] [-1.29021155834198:1.9604982137680054] [2.318076610663411e-07:0.92493313550949097] [-0.0028578010387718678:175.40310668945312] [-0.0028578010387718678:1831.6923828125] [-0.0029584132134914398:30.590669631958008] [3.1728675367048709e-06:504.52597045898438] [6.0288957683951594e-06:5.0127367973327637] [6.0288957683951594e-06:7.9019389152526855] [5.6781289003993152e-08:3.4939858913421631] [4.6954224330875149e-07:2.3680334091186523] [1.3669956615558476e-06:46.087165832519531] [1.3669956615558476e-06:206.87527465820312] [1.1012323497539001e-08:13.960607528686523] [1.7237402971659321e-07:57.375354766845703] [1.2830498235416599e-05:1.5229232311248779] [1.2830498235416599e-05:1.9703748226165771] [2.0178136495019316e-08:1.5229232311248779] [3.1149154438026017e-06:1.0033252239227295] [0.00011757470201700926:1.0099943876266479] [0.00011757470201700926:1.0099999904632568] [1.4335777898111246e-08:1.0099943876266479] [3.3717478231665154e-07:0.71355980634689331] [-0.0018591047264635563:1.0099937915802002] [-0.0018591047264635563:1.0099999904632568] [-0.002005766611546278:1.0099937915802002] [1.2644054550037254e-06:0.70912051200866699] [7.084235562615504e-07:1.009749174118042] [7.084235562615504e-07:1.0099998712539673] [4.2683925838282732e-10:1.009749174118042] [3.681263933685841e-07:0.71320641040802002] [-0.27795645594596863:2.7988080978393555] [-0.23274321854114532:3.9482712745666504] [-0.36345610022544861:2.2820913791656494] [1.8123145082427072e-06:1.3926714658737183] [9.0878584160236642e-06:71.523391723632812] [9.0878584160236642e-06:83.483627319335938] [3.3436236890338478e-08:62.972267150878906] [1.0543298003540258e-06:8.4018697738647461] [5.3101211960893124e-06:1.2296727895736694] [5.3101211960893124e-06:1.2314128875732422] [2.0370443110095948e-08:1.2296727895736694] [5.436943411041284e-06:0.86759322881698608] [3.3226260711671785e-05:1.8185983896255493] [3.3226260711671785e-05:1.9739718437194824] [9.2166068554888625e-08:1.7521439790725708] [4.5386886995402165e-06:0.65442425012588501] [-0.0158217903226614:10.032558441162109] [-0.01514232624322176:10.278973579406738] [-0.016983730718493462:10.028117179870605] [1.0536712125031045e-07:4.7088212966918945] [1.1560555321921129e-05:50.435810089111328] [1.1560555321921129e-05:128.55526733398438] [7.2198311329429998e-08:40.573684692382812] [1.211721951221989e-06:46.532524108886719] [2.1172525521251373e-05:12.000781059265137] [2.1172525521251373e-05:35.0045166015625] [1.1545893130460172e-09:12.000781059265137] [5.3502623131862492e-07:11.83971118927002] [1.9225674350309419e-06:1.2560563087463379] [1.9225674350309419e-06:1.2619233131408691] [4.9689452552570401e-09:1.253064751625061] [3.5139935334882466e-06:0.86655497550964355] [1.0752259186119772e-05:2.8395795822143555] [1.0752259186119772e-05:2.8396236896514893] [6.71350449010788e-07:2.8395795822143555] [2.798814193738508e-07:1.9962193965911865] [-0.28022748231887817:23.18297004699707] [-0.0052489470690488815:29.412694931030273] [-2.185370922088623:14.90083122253418] [1.5383599247797974e-06:7.7551593780517578] [-0.079841412603855133:1.8368769884109497] [-0.076526261866092682:2.1533324718475342] [-0.102430060505867:1.6765381097793579] [1.6015802657420863e-06:0.74158865213394165] [2.8777835723303724e-06:1.0099605321884155] [2.8777835723303724e-06:1.0099999904632568] [5.9050302425589507e-09:1.0099605321884155] [1.0958181064779637e-06:0.71293306350708008] [-0.0090700602158904076:73.220939636230469] [-0.0090700602158904076:868.51544189453125] [-0.0092584798112511635:15.053740501403809] [1.688508064034977e-06:250.45281982421875] [-0.33171600103378296:27.355072021484375] [-0.0018171530682593584:34.54461669921875] [-2.5819098949432373:17.616777420043945] [3.2960151656880043e-06:9.1659774780273438] [-0.19991616904735565:2.3648483753204346] [-0.19991616904735565:3.8014321327209473] [-0.19999873638153076:2.3648483753204346] [7.2492580329708289e-06:1.2475590705871582] [-0.0015215694438666105:5.4292020797729492] [-0.0015215694438666105:6.5148124694824219] [-0.0028221346437931061:5.4258465766906738] [1.008231606647314e-06:2.569960355758667] [5.2885179684381001e-06:133.451904296875] [5.2885179684381001e-06:330.26937866210938] [5.8245341882923185e-09:133.451904296875] [1.8835196442523738e-06:190.47384643554688] [2.1036278212704929e-06:1.0099807977676392] [2.1036278212704929e-06:1.0099999904632568] [2.4786752650385324e-09:1.0099807977676392] [1.4476454452960752e-06:0.70854133367538452] [5.2919572226528544e-06:1.0099984407424927] [5.2919572226528544e-06:1.0099998712539673] [3.7745550685031048e-08:1.0099984407424927] [4.4736575546266977e-06:0.71364802122116089] [2.1368325178627856e-05:1.0099880695343018] [2.1368325178627856e-05:1.0099999904632568] [2.2873852856264421e-07:1.0099880695343018] [1.770167614267848e-06:0.66793930530548096] [1.4990159797889646e-05:1.009833812713623] [1.4990159797889646e-05:1.0099999904632568] [5.4265769655614804e-09:1.009833812713623] [1.6572272443227121e-06:0.71178567409515381] [0:1] [0:1] [0:1] [0:0.70710676908493042] [5.7112292779493146e-06:1.0099598169326782] [5.7112292779493146e-06:1.0099999904632568] [5.0381623317719004e-09:1.0099598169326782] [2.3621992113476153e-06:0.71215134859085083] [0:6] [0:6] [0:6] [0:3.5355339050292969] [-0.38517016172409058:9.9986486434936523] [-0.38517016172409058:92.946723937988281] [-0.40410897135734558:3.1614668369293213] [5.5212371989910025e-06:25.749526977539062] [6.2082522163109388e-06:14.447257041931152] [6.2082522163109388e-06:14.448200225830078] [4.6506809514568204e-10:14.447257041931152] [7.4975292818635353e-07:10.214117050170898] [3.1200381727103377e-06:1.0099283456802368] [3.1200381727103377e-06:1.0099998712539673] [3.6556575544466341e-09:1.0099283456802368] [3.7916111068625469e-06:0.71244269609451294] [1.2577671441249549e-05:128.91122436523438] [1.2577671441249549e-05:288.29428100585938] [7.3385808541104325e-09:28.374460220336914] [2.1633186975122953e-07:94.8421630859375] [2.6521109930399689e-07:1109.74462890625] [2.6521109930399689e-07:2787.341552734375] [6.0516009980915442e-09:1109.74462890625] [8.2268672940699616e-07:1046.7392578125] [1.1562609870452434e-05:3.5041658878326416] [1.1562609870452434e-05:3.5077588558197021] [1.2287673101241126e-08:3.500852108001709] [2.9746454401902156e-06:1.0594441890716553] [9.0158082457492128e-06:5.909052848815918] [9.0158082457492128e-06:7.004608154296875] [6.6233213358302123e-10:2.7583215236663818] [5.2683560625155224e-07:1.8882039785385132] [0.00025289913173764944:27.090848922729492] [0.00025289913173764944:67.028755187988281] [3.0269393658244326e-09:23.200563430786133] [4.1356594238095568e-07:18.459794998168945] [6.9885732045804616e-06:3.0075104236602783] [6.9885732045804616e-06:3.0099992752075195] [3.3814337441206987e-10:3.0075104236602783] [3.7207763625701773e-07:1.6055343151092529] [-0.29987058043479919:2.807443380355835] [-0.29987058043479919:5.3075761795043945] [-0.29999977350234985:2.807443380355835] [1.0536712125031045e-06:2.4791114330291748] [4.386300133774057e-05:1.3938009738922119] [4.386300133774057e-05:1.6930979490280151] [4.3529627902216816e-08:1.3754196166992188] [8.4634084487333894e-06:0.84765815734863281] [-0.036072291433811188:3.6796321868896484] [-0.035350736230611801:3.6826491355895996] [-0.036793846637010574:3.6762301921844482] [8.4425410022959113e-06:1.5949761867523193] [4.693622759077698e-05:1.1418929100036621] [4.693622759077698e-05:1.2510548830032349] [2.6680659903632886e-09:1.0993976593017578] [3.0711223644175334e-06:0.69912147521972656] [1.4848961654934101e-05:4.394554615020752] [1.4848961654934101e-05:4.5090856552124023] [2.1371693303962047e-09:4.2867913246154785] [3.7510694710363168e-06:0.82814401388168335] [4.285346221877262e-06:4.169062614440918] [4.285346221877262e-06:4.275118350982666] [1.8542566593282572e-08:4.0748333930969238] [1.6315440234393463e-06:1.3637856245040894] [0.00046777894021943212:12.292133331298828] [0.00046777894021943212:12.295432090759277] [9.9641192718991078e-07:12.288142204284668] [4.5966407924424857e-07:4.1146273612976074] [1.9198159861844033e-06:29.11070442199707] [1.9198159861844033e-06:37.283012390136719] [1.8209389551770983e-09:18.784425735473633] [3.1577209824718011e-07:11.95754337310791] [5.6441858760081232e-06:126.43144989013672] [5.6441858760081232e-06:449.9888916015625] [8.6762902418158205e-10:50.671810150146484] [8.6631530393788125e-07:170.1444091796875] [4.3709337660402525e-06:5.0046133995056152] [4.3709337660402525e-06:6.0062332153320312] [7.0954818909285677e-08:5.000762939453125] [2.8235095328454918e-07:2.3670144081115723] [-0.19304658472537994:11.656049728393555] [-0.010991815477609634:15.699758529663086] [-1.8464206457138062:4.8532552719116211] [2.4198218397941673e-06:3.9604778289794922] [7.111879313015379e-06:164.29541015625] [7.111879313015379e-06:550.78436279296875] [1.691720985519396e-09:27.744468688964844] [8.9891322829771525e-08:154.15432739257812] [2.1350051611079834e-06:8.5085611343383789] [2.1350051611079834e-06:16.008644104003906] [8.295924502910168e-10:8.5085611343383789] [8.6516287467475195e-08:5.6891069412231445] [6.628953997278586e-06:8.2565393447875977] [6.628953997278586e-06:10.501420021057129] [1.4380668877933545e-10:7.0031280517578125] [8.8705945699985023e-07:4.2107605934143066] [1.4643692338722758e-05:18.002828598022461] [1.4643692338722758e-05:38.008079528808594] [6.3308354114610665e-09:18.002828598022461] [8.2153428593301214e-07:15.332736015319824] [2.8463795388233848e-05:1.5083166360855103] [2.8463795388233848e-05:1.5099995136260986] [3.1214850082506018e-07:1.5083166360855103] [1.4119194702288951e-06:0.86761254072189331] [8.285958301712526e-07:90.565238952636719] [8.285958301712526e-07:193.31724548339844] [5.8029119287539288e-09:45.613162994384766] [5.936778961768141e-07:71.514984130859375] [5.923052867728984e-06:4.8063526153564453] [5.923052867728984e-06:8.0097799301147461] [1.3072892990351193e-08:3.4057819843292236] [2.5518599500173877e-07:2.1748385429382324] [7.6388232628232799e-07:8.0018301010131836] [7.6388232628232799e-07:21.003671646118164] [1.5284925325431686e-08:8.0018301010131836] [4.2879480588453589e-07:7.9653658866882324] [4.39110067418369e-07:5.5009260177612305] [4.39110067418369e-07:10.507297515869141] [1.5353893711989031e-09:5.5001368522644043] [9.2953558805675129e-07:3.4320642948150635] [1.5937832813506247e-06:0.053479503840208054] [1.5937832813506247e-06:0.23351652920246124] [2.6366346883577307e-09:0.053479503840208054] [3.1524525638815248e-06:0.063005618751049042] [3.5822072277369443e-06:7.6193432807922363] [3.5822072277369443e-06:8.0098466873168945] [4.9389021761214735e-09:7.0000677108764648] [2.7856432893713645e-07:4.948824405670166] [1.740632978908252e-05:2.8884356021881104] [1.740632978908252e-05:3.0085265636444092] [2.1642199499183334e-07:2.5016756057739258] [3.7932163650111761e-06:0.95636492967605591] [4.4993266783421859e-06:4.0471429824829102] [4.4993266783421859e-06:4.0490584373474121] [4.1187728783143029e-09:4.0471429824829102] [1.7719786455927533e-06:2.8573219776153564] [-0.090642057359218597:1.0099971294403076] [-0.090642057359218597:1.0099999904632568] [-0.091706514358520508:1.0099971294403076] [8.4293695579162886e-08:0.77523714303970337] [0.00021802331320941448:10.767226219177246] [0.00021802331320941448:13.636447906494141] [-2.1602070773951709e-05:6.9155492782592773] [1.5402696590172127e-05:3.5891604423522949] [1.3006248309466173e-06:0.3573424220085144] [1.3006248309466173e-06:0.74831390380859375] [5.6710462992271005e-09:0.3573424220085144] [2.1040495994384401e-06:0.24615037441253662] [3.6368427913657797e-07:28.00499153137207] [3.6368427913657797e-07:38.007530212402344] [5.0426569586647929e-09:25.006650924682617] [3.3742504456313327e-05:18.400419235229492] [1.8567938013802632e-06:1645.2655029296875] [1.8567938013802632e-06:4837.3046875] [4.6840806788850387e-09:190.98114013671875] [4.4484681893663947e-07:1828.3275146484375] [3.5472277204462443e-07:1.0098673105239868] [3.5472277204462443e-07:1.0099998712539673] [3.5884439864020123e-10:1.0098673105239868] [4.0994396499627328e-07:0.7127266526222229] [2.0410136130522005e-05:8.4661979675292969] [2.0410136130522005e-05:29.005588531494141] [1.1903791286016485e-09:7.5049448013305664] [3.3651625130914908e-07:9.2707967758178711] [7.6789626746176509e-07:5.4442138671875] [7.6789626746176509e-07:17.503454208374023] [5.660559798670306e-10:4.5013809204101562] [1.5923606042633764e-06:5.5658760070800781] [2.1234945961623453e-05:4.4734745025634766] [2.1234945961623453e-05:8.1361865997314453] [2.3169597795913432e-08:3.3788447380065918] [2.148567364201881e-05:2.4162824153900146] [0:2] [0:2] [0:2] [0:1.4142135381698608] [9.6327812570962124e-07:1.008846640586853] [9.6327812570962124e-07:1.0099998712539673] [3.35474759083354e-09:1.008846640586853] [2.003950839934987e-06:0.71131831407546997] [7.064733722472738e-07:1.0096337795257568] [7.064733722472738e-07:1.0099999904632568] [5.418329340756145e-09:1.0096337795257568] [3.2532099680793181e-07:0.70887863636016846] [1:1] [1:1] [1:1] [0:0] [1.2805096503143432e-06:0.29002904891967773] [1.2805096503143432e-06:1.0015279054641724] [5.7159303956666463e-09:0.29002904891967773] [6.9608154262823518e-07:0.27515175938606262] [7.7963813964743167e-06:0.28331306576728821] [7.7963813964743167e-06:1.0007773637771606] [2.1702870611761682e-09:0.0099966647103428841] [2.8519093575596344e-06:0.317638099193573] [0.0024902827572077513:1.5251532793045044] [0.0027384776622056961:2.0813124179840088] [4.0552986320108175e-05:1.2018978595733643] [2.439907405005215e-07:0.7177392840385437] [9.4789756985846907e-06:0.092963129281997681] [9.4789756985846907e-06:0.18332076072692871] [6.9516876699537988e-09:0.092963129281997681] [1.2685212880114705e-07:0.07736998051404953] [3.0216087907319888e-05:1.009919285774231] [3.0216087907319888e-05:1.0099998712539673] [1.9549253327255656e-09:1.009919285774231] [1.3252179087430704e-06:0.71354687213897705] [3.7333834370656405e-06:1.0092813968658447] [3.7333834370656405e-06:1.0099999904632568] [2.0981418824561615e-09:1.0092813968658447] [1.0118536692971247e-06:0.70789843797683716] [3.3026324217644287e-06:1.0097253322601318] [3.3026324217644287e-06:1.0099995136260986] [7.23468707164443e-09:1.0095875263214111] [2.2357585294230375e-06:0.71235924959182739] [1.1623653335846029e-05:12.773682594299316] [1.1623653335846029e-05:41.004776000976562] [5.5441535806721731e-09:10.009978294372559] [6.3497686824121047e-06:13.959210395812988] [1.2323653209023178e-07:1.0098459720611572] [1.2323653209023178e-07:1.0099999904632568] [3.6468721376081703e-09:1.0098459720611572] [7.2513984150646138e-07:0.71285825967788696] [7.6065230132371653e-06:1.0099877119064331] [7.6065230132371653e-06:1.0099999904632568] [2.2827329360097792e-08:1.0099877119064331] [6.7434956463330309e-07:0.71400123834609985] [2.7935552679991815e-06:1.0055553913116455] [2.7935552679991815e-06:1.0099461078643799] [2.0142996992600359e-10:1.0055553913116455] [6.8603873160100193e-07:0.54998618364334106] [1.8194883750766166e-06:1.0074235200881958] [1.8194883750766166e-06:1.00999915599823] [9.5761465424004655e-10:1.0074235200881958] [1.0767203093564603e-06:0.71068054437637329] [2.5722242753545288e-06:0.85130637884140015] [2.5722242753545288e-06:1.0099650621414185] [5.1402317957638388e-09:0.0099974125623703003] [6.8883753101545153e-07:0.54780244827270508] [3.464952897047624e-06:2.8132531642913818] [3.464952897047624e-06:3.009737491607666] [1.2003612326338953e-08:2.5005717277526855] [3.556140271143704e-08:0.93346929550170898] [5.3576343361783074e-07:2.0081956386566162] [5.3576343361783074e-07:2.0099954605102539] [1.8125208001151805e-08:2.0075943470001221] [1.0092194315802772e-06:1.0379756689071655] [1.6658080994602642e-06:1.0097171068191528] [1.6658080994602642e-06:1.0099997520446777] [7.8059256836127133e-09:1.0097171068191528] [1.9624626190761774e-07:0.70914548635482788] [1.6915904552661232e-06:1.00969398021698] [1.6915904552661232e-06:1.0099995136260986] [9.5299013125327292e-10:1.00969398021698] [9.4962115326779895e-07:0.70203346014022827] [1.2846483059547609e-06:1.0099846124649048] [1.2846483059547609e-06:1.00999915599823] [2.4269404264032346e-09:1.0099846124649048] [1.2245635616636719e-06:0.71206873655319214] [3.4681363558775047e-06:1.008811354637146] [3.4681363558775047e-06:1.0099973678588867] [4.6405618930878134e-11:1.008811354637146] [5.2041480103071081e-07:0.70929712057113647] [1.7498776969659957e-06:1.00932776927948] [1.7498776969659957e-06:1.0099996328353882] [2.677824906260895e-10:1.00932776927948] [1.2034901146762422e-06:0.71348583698272705] [-82.678573608398438:1.0327022075653076] [-82.678573608398438:1.0327037572860718] [-91.997413635253906:1.0327022075653076] [1.7238060536328703e-05:45.126560211181641] [-17.709085464477539:126.64199066162109] [-0.59667891263961792:885.33489990234375] [-205.07229614257812:2.0708115100860596] [1.0536711947395361e-08:334.55215454101562] [-90.480117797851562:1.0506315231323242] [-90.480117797851562:1.0542874336242676] [-90.483657836914062:1.0506315231323242] [1.4582809853891376e-05:54.348175048828125] [-2.4493985176086426:2.1797091960906982] [-2.4493985176086426:4.0520477294921875] [-2.4534432888031006:1.6479455232620239] [4.2568317439872772e-06:2.4159431457519531] [2.3616967155248858e-06:69.136138916015625] [2.3616967155248858e-06:98.174385070800781] [1.2516526481931578e-08:35.795333862304688] [1.185380142487702e-06:31.532444000244141] [1.9944436644436792e-05:1.0897340774536133] [1.9944436644436792e-05:1.0899976491928101] [9.6205865496301612e-10:1.0897340774536133] [3.4443935419403715e-06:0.76860421895980835] [1.1847046152979601e-06:1.0099750757217407] [1.1847046152979601e-06:1.0099999904632568] [1.0258057736578508e-09:1.0099750757217407] [2.4445171220577322e-06:0.71207040548324585] [9.3459885874835891e-07:1.1223286390304565] [9.3459885874835891e-07:1.237285852432251] [4.527330510484262e-09:1.1223286390304565] [4.1290741137345321e-07:0.71738916635513306] [-0.023073567077517509:4.5384469032287598] [-0.023073567077517509:4.5384469032287598] [-0.025782166048884392:4.5384469032287598] [1.2864008567703422e-05:1.513994574546814] [8.1839652921189554e-06:22.06065559387207] [8.1839652921189554e-06:130.43966674804688] [7.5329921855882276e-08:9.8714504241943359] [2.671056563485763e-06:39.327339172363281] [1.0458900760568213e-05:6.5696330070495605] [1.0458900760568213e-05:7.0090041160583496] [6.4039222813505603e-09:6.0091447830200195] [2.5288109100074507e-06:1.8149197101593018] [4.9514565034769475e-06:0.5051916241645813] [4.9514565034769475e-06:0.58546215295791626] [1.160855522819304e-09:0.5051916241645813] [8.2795509115385357e-07:0.25890582799911499] [-0.26680561900138855:1.3277486562728882] [-0.044738292694091797:1.3278119564056396] [-5.3169116973876953:1.3277486562728882] [4.7467888180108275e-06:1.6561093330383301] [0.00069679971784353256:7.7829990386962891] [0.00069679971784353256:9.5090532302856445] [1.0014590401397072e-07:5.9299321174621582] [0.0004264151502866298:2.884990930557251] [-0.014732237905263901:1.0097477436065674] [-0.0078582568094134331:1.0099999904632568] [-0.025710992515087128:1.0097477436065674] [1.8291731976205483e-05:0.52630650997161865] [1:7] [1:7] [1:7] [0:4.242640495300293] [7.1704346282785991e-07:7.0009040832519531] [7.1704346282785991e-07:9.0088558197021484] [7.1704346282785991e-07:7.0009040832519531] [1.3536382539314218e-06:4.2488675117492676] [1.9523511127772508e-06:1.0078468322753906] [1.9523511127772508e-06:1.0099995136260986] [1.6915768785707996e-09:1.0075355768203735] [1.5535065358562861e-06:0.52094626426696777] [-0.019783858209848404:1.0098886489868164] [-0.016175171360373497:1.0099970102310181] [-0.02374994195997715:1.0098886489868164] [5.4790903050161432e-06:0.4726414680480957] [0.0011527736205607653:1.0097659826278687] [0.0011540126288309693:1.0099979639053345] [3.0916799005353823e-06:1.0097659826278687] [1.1969705155934207e-05:0.54836535453796387] [-0.0048712333664298058:1.0066205263137817] [8.333864388987422e-05:1.0918344259262085] [-0.9762035608291626:1.0048853158950806] [0.0013044807128608227:0.71260899305343628] [6.9653629907406867e-05:1.0099993944168091] [7.7709824836347252e-05:1.0099999904632568] [1.5435159639309859e-07:1.0099993944168091] [4.0460972741129808e-06:0.71267610788345337] [7.5639736678567715e-06:3162.277099609375] [7.5639736678567715e-06:5755.076171875] [1.2012753458634506e-08:23.061321258544922] [7.273994469869649e-06:2224.1767578125] [5.2101468099863268e-06:4.7578659057617188] [5.2101468099863268e-06:5.4562687873840332] [4.1093031200034602e-08:4.6496853828430176] [1.2617713309737155e-06:3.2695949077606201] [4.1312443244123642e-08:7.0621123313903809] [4.1312443244123642e-08:7.2072997093200684] [2.3056733411408459e-08:6.8017005920410156] [1.6331904362232308e-06:1.131054162979126] [0:1] [0:1] [0:1] [0:0.70710676908493042] [0.00011106321471743286:1.9955073595046997] [0.00011106321471743286:1.9995256662368774] [2.2280535461050022e-07:1.9897640943527222] [7.0595970100839622e-06:0.82882958650588989] [0:1] [0:1] [0:1] [0:0.53452247381210327] [-1:6] [-1:6] [-1:6] [0:4.9497475624084473] [5.8426325267646462e-05:1.9664666652679443] [5.8426325267646462e-05:1.9708160161972046] [2.5519062418766225e-08:1.9634016752243042] [1.8418173567624763e-05:0.85993677377700806] [4.3186344555579126e-05:1.9718939065933228] [4.3186344555579126e-05:1.9770066738128662] [2.353007317879019e-07:1.9673284292221069] [8.5136634879745543e-06:0.86217981576919556] [0:1] [0:1] [0:1] [0:0.70710676908493042] [-0.032036483287811279:1.7857835292816162] [-0.032036483287811279:1.7911094427108765] [-0.032075468450784683:1.781552791595459] [1.1358575648046099e-05:0.67509663105010986] [3.7007961509516463e-05:1.9722578525543213] [3.7007961509516463e-05:2.0092761516571045] [5.550461992243072e-07:1.8575606346130371] [2.9502794518521114e-07:0.71667289733886719] [1.4494623883365421e-06:42.575992584228516] [1.4494623883365421e-06:55.007068634033203] [8.5786433512424765e-10:32.002590179443359] [2.4002301870496012e-06:11.759359359741211] [-0.04539056122303009:2.424839973449707] [-0.04539056122303009:2.4571576118469238] [-0.04545414075255394:2.4101297855377197] [7.9236078818212263e-06:0.6027374267578125] [8.9755462795437779e-07:3.0063831806182861] [8.9755462795437779e-07:6.0095958709716797] [1.3810978138906194e-08:3.0063831806182861] [1.1282349078101106e-05:3.0029141902923584] [-0.58333331346511841:1] [0:1] [-1:1] [0:1.0690449476242065] [3.4327300113545789e-07:1.0095025300979614] [3.4327300113545789e-07:1.0099998712539673] [2.7567759186553076e-09:1.0091691017150879] [6.4866632953908265e-08:0.71344119310379028] [4.9191507969226222e-06:1.0112984180450439] [4.9191507969226222e-06:1.0162169933319092] [3.2353486556502276e-09:1.0109343528747559] [6.3154419649436022e-07:0.71204721927642822] [4.9086008857557317e-07:1.0099976062774658] [4.9086008857557317e-07:1.0099999904632568] [1.9699004649709195e-09:1.0099976062774658] [1.3486991292666062e-06:0.71302622556686401] [1.0276831972078071e-06:12.83729076385498] [1.0276831972078071e-06:22.004878997802734] [4.8040629252454892e-09:6.0032048225402832] [1.6901133221836062e-06:7.7555370330810547] [0.0001938384521054104:6.0711455345153809] [0.0001938384521054104:6.4425091743469238] [3.1085744467418408e-06:6.0443544387817383] [3.7563379009952769e-05:1.0458633899688721] [6.1876248764747288e-06:1.0111801624298096] [6.1876248764747288e-06:1.0280444622039795] [1.2818096584155114e-09:1.0105999708175659] [5.2753529189430992e-07:0.71259909868240356] [1.7017227946780622e-06:1.4162825345993042] [1.7017227946780622e-06:1.4515315294265747] [1.3151172373326858e-09:1.4124448299407959] [2.4741516426729504e-06:0.71853262186050415] [-0.011103304103016853:5.5835103988647461] [-0.011103304103016853:5.5835103988647461] [-0.015101986937224865:5.5835103988647461] [7.8814609878463671e-06:2.2757806777954102] [1.3529590887628729e-06:1.508154034614563] [1.3529590887628729e-06:1.5099995136260986] [6.3805821737261681e-10:1.508154034614563] [2.0398415472300258e-06:1.0660320520401001] [4.5856154429202434e-06:1.0083768367767334] [4.5856154429202434e-06:1.0099955797195435] [2.3858537367971167e-09:1.0076006650924683] [5.2025015406798047e-08:0.71163350343704224] [-0.0088027138262987137:1.0099668502807617] [-0.0061096679419279099:1.0099998712539673] [-0.012054166756570339:1.0099668502807617] [1.6700688547643949e-06:0.5314176082611084] [1.9077999240835197e-05:1.0098681449890137] [1.9077999240835197e-05:1.0099985599517822] [7.7523651498268009e-08:1.0098681449890137] [1.1932826282645692e-06:0.71258467435836792] [6.9716115831397474e-05:1.5050384998321533] [6.9716115831397474e-05:1.7598621845245361] [6.3167732378133223e-08:1.2539746761322021] [2.2759297735319706e-06:0.58170026540756226] [1.5101215922186384e-06:1.0097955465316772] [1.5101215922186384e-06:1.0099951028823853] [1.0787865711847644e-08:1.0097955465316772] [4.5940064410388004e-06:0.71313941478729248] [1.945758776855655e-05:1.9279730319976807] [1.945758776855655e-05:3.0053825378417969] [3.5277430754376837e-08:1.5020662546157837] [2.1073424250062089e-06:0.83855253458023071] [1.5397126844618469e-06:1.0099892616271973] [1.5397126844618469e-06:1.0099999904632568] [2.4629918105034676e-09:1.0099892616271973] [5.9005589037042228e-07:0.70660537481307983] [2.8298161396378418e-06:1.0097734928131104] [2.8298161396378418e-06:1.0099999904632568] [5.1867097283775365e-09:1.0097734928131104] [3.3817907478805864e-06:0.71232074499130249] [3.4560682706796797e-06:1.2761152982711792] [3.4560682706796797e-06:1.3051990270614624] [1.6500997790380723e-10:1.2703574895858765] [2.8676320198428584e-06:0.65231341123580933] [-0.0096232779324054718:2.1389045715332031] [-0.0096232779324054718:2.145716667175293] [-0.01422761008143425:2.1304779052734375] [1.6015802657420863e-06:0.63838416337966919] [5.5877217164379545e-06:1.0099941492080688] [5.5877217164379545e-06:1.0099999904632568] [5.5496922612974231e-09:1.0099941492080688] [6.9739866148665897e-07:0.71058380603790283] [1.0750219189503696e-05:1.3418841361999512] [1.0750219189503696e-05:1.3433282375335693] [2.5009905257888931e-09:1.3418841361999512] [4.1488302571224267e-08:0.94904595613479614] [1.3572171155828983e-06:4.549048900604248] [1.3572171155828983e-06:4.5545592308044434] [1.2260240600525663e-09:4.5455589294433594] [1.0972997870339896e-06:1.1604470014572144]
tree_sizes=7025 7107 7093 7123 7121 7134 7151 7145 7176 7154 7168 7163 7176 7148 7196 7160 7184 7185 7183 7199 7174 7196 7201 7182 7212 7181 7202 7206 7201 7183 7224 7210 7217 7240 7224 7216 7223 7218 7219 7229 7237 7224 7230 7216 7238 7231 7234 7246 7234 7214 7258 7218 7248 7230 7256 7250 7259 7240 7229 7255 7234 7259 7258 7253 7252 7254 7275 7247 7285 7260 7265 7272 7236 7273 7259 7260 7260 7255 7271 7257 7271 7254 7197 7261 7209 7231 7281 7315 7284 7254 7245 7261 7280 7276 7221 7261 7275 7275 7308 7255 7311 7267 7273 7249 7262 7260 7247 7270 7238 7250 7286 7272 7283 7292 7290 7266 7301 7301 7270 7241 7271 7273 7285 7237 7297 7280 7269 7263 7276 7274 7254 7257 7261 7277 7301 7258 7304 7271 7206 7307 7243 7272 7283 7258 7286 7262 7265 7273 7268 7305 7186 7280 7260 7266 7232 7213 7286 7239 7209 7258 7272 7271 7314 7263 7318 7285 7242 7259 7273 7269 7250 7262 7286 7259 7272 7222 7254 7273 7249 7281 7220 7271 7227 7290 7263 7296 7211 7278 7296 7269 7250 7291 7237 7288 7267 7202 7204 7244 7286 7251 7252 7245 7239 7304 7250 7258 7257 7294 7303 7220 7238 7277 7249 7226 7264 7234 7218 7276 7255 7258 7274 7283 7204 7263 7253 7222 7170 7285 7272 7269 7265 7240 7286 7251 7264 7258 7253 7242 7313 7257 7223 7282 7261 7145 7252 7238 7263 7243 7265 7100 7256 7249 7258 7221 7236 7274 7231 7186 7255 7164 7256 7240 7243 7274 7245 7234 7187 7219 7208 7207 7212 7257 7190 7251 7256 7288 7265 7182 7242 7213 7219 7209 7204 7252 7236 7211 7225 7285 7174 7171 7117 7192 7079 7210 7286 7194 7187 7190 7213 7191 7090 7155 7282 7159 7289 7124 7274 7193 7095 7305 7239 7211 7186 7109 7265 7288 7167 7166 7176 7247 7224 7214 7146 7096 7134 7130 7140 7171 7176 7102 7097 7231 7225 7161 7196 7218 7228 7184 7158 7157 7214 7251 7176 7089 7137 7139 7199 7199 7185 7123 7219 7184 7084 7143 7181 7117 7116 7195 7082 7251 7172 7093 7087 7207 7109 7142 7249 7168 7134 7175 7133 7127 7224 7157 7218 7126 7292 7158 7190 7151 7098 7190 7279 7115 7100 7134 7155 7201 7191 7141 7095 7087 7095 7246 7184 7139 7158 7234 7204 7112 7225 7119 7132 7088 7112 7183 7169 7122 7116 7207 7232 7211 7141 7106 7121 7100 7243 7201 7179 7090 7152 7222 7199 7138 7173 7190 7103 7135 7179 7218 7145 7171 7116 7260 7152 7205 7290 7125 7175 7167 7252 7197 7206 7116 7101 7085 7178 7157 7121 7175 7141 7100 7152 7123 7213 7201 7101 7078 7195 7119 7215 7138 7214 7099 7105 7206 7195 7252 7175 7203 7215 7179 7197 7104 7212 7172 7206 7166 7089 7135 7093 7094 7211 7149 7097 7231 7179 7150 7156 7121 7236 7164 7141 7078 7071 7215 7151 7143 7233 7147

Tree=0
num_leaves=64
num_cat=0
split_feature=0 16 256 31 2 5 34 32 20 60 40 5 20 2 108 32 5 561 43 5 277 16 0 97 167 8 60 256 68 20 16 49 20 2 7 40 108 36 9 29 12 60 12 7 50 5 16 16 558 16 47 214 33 32 8 43 256 60 60 204 5 47 100
split_gain=162127 20140.1 13163.2 7034.38 4071.19 3965.42 2587 2333.12 2160.56 1826.49 1437.73 1264.2 1259.27 1060.33 1003.78 958.798 932.916 847.617 760.344 623.044 617.036 602.123 600.383 555.595 524.141 455.272 450.009 422.106 407.173 405.925 392.612 386.525 366.522 349.727 345.204 312.41 310.172 309.599 301.733 285.117 277.208 256.93 252.929 236.691 225.179 223.976 223.444 220.461 216.186 215.768 208.997 204.785 195.904 192.445 190.861 188.95 188.467 187.216 185.852 183.948 176.919 175.785 174.568
threshold=0.54787015914917003 0.10213457420468332 0.045130711048841483 0.031355816870927818 0.58495062589645397 0.91196873784065258 0.066541634500026717 0.14450191706418994 0.17721352726221087 0.47878769040107733 0.034821635112166412 1.7948093414306643 0.20310733467340472 0.60883408784866344 0.57864522933959972 0.15126483887434009 0.91196873784065258 3.5000000000000004 0.09784137457609178 1.6245213150978091 0.15827941894531253 0.042935073375701911 0.71824160218238842 0.57184642553329479 0.27747718989849096 0.10888934880495073 0.50221920013427745 0.160200409591198 0.4371198862791062 0.18960629403591159 0.10000038892030717 0.12316331267356874 0.18730832636356357 0.23737375438213351 0.49698062241077429 0.071801371872425093 0.60342484712600719 0.27767874300479894 0.089429169893264784 0.5143398940563203 0.82107931375503551 0.46907186508178716 0.033137550577521331 0.49698062241077429 0.11670226603746416 1.5005333423614504 0.02304900344461203 0.2969231009483338 0.015034286305308344 0.38913504779338842 0.08033978566527368 0.87043699622154247 0.041926432400941856 0.19270706921815875 0.057695100083947189 0.10941236093640329 0.19808425754308703 0.48220072686672216 0.51069298386573803 0.080926951020956053 1.7948093414306643 0.081605125218629851 0.18348851799964908
decision_type=8 2 8 8 10 2 10 10 10 10 10 2 10 8 10 10 2 10 10 2 2 2 10 2 8 2 10 10 10 10 2 10 10 10 8 10 10 10 2 10 10 8 10 10 10 2 2 2 10 2 8 10 10 10 2 10 10 8 8 2 2 10 2
left_child=1 3 6 7 12 8 11 10 17 15 43 13 19 20 23 16 27 28 29 26 -2 57 42 35 31 37 51 -5 -3 -11 40 -7 -22 -19 56 52 -9 -12 -16 45 53 -23 -6 54 -40 -33 -34 62 -29 55 -28 -4 -10 -8 -1 -25 -18 -14 -35 -44 -24 -20 -30
right_child=2 5 4 9 22 24 30 36 14 18 25 -13 21 -15 38 -17 34 33 61 -21 32 41 60 49 -26 -27 50 48 47 -31 -32 39 46 58 -36 -37 -38 -39 44 -41 -42 -43 59 -45 -46 -47 -48 -49 -50 -51 -52 -53 -54 -55 -56 -57 -58 -59 -60 -61 -62 -63 -64
leaf_value=-1.0996937517207019 -1.1078978159548467 -1.0725122840895753 -1.0657633106837858 -1.0423732315655505 -1.0142565120889457 -0.88855980335023721 -1.050912910464439 -0.96866459030404428 -1.0312260714085106 -0.99401196426260086 -1.0559787833429568 -0.96751792577971263 -1.0348487424380801 -1.1163147534064748 -0.99521443093845285 -0.95154334473137558 -1.0070613709387159 -0.92570216261172644 -0.93784528124650191 -0.88721108932416182 -1.0921220010319121 -0.99120541821490726 -1.0945140783904961 -0.92229188523257633 -0.87138672434010256 -0.99011888056189457 -1.0343251641693223 -0.96099181036417414 -1.0388262265726382 -0.95010953272204457 -0.96535405536045749 -0.98672382224155286 -1.0757824666122926 -0.9951683614692145 -0.90016188058913316 -0.92561581274678506 -1.0150771629304984 -1.0001351926863304 -0.93285630153379473 -0.90391517557106094 -1.0823581536278497 -0.94015965373391985 -1.0698079477599658 -0.98097942955627071 -0.97230640988171879 -0.91454159701660476 -1.031488543113716 -0.95626728663318117 -1.0109683441644903 -0.88352539077797543 -0.98612903498803584 -1.0236551737094646 -0.94924608956989598 -0.99695992072458317 -1.0608835450773828 -0.89370283538664819 -0.95153275497412659 -0.98904579313022722 -0.95294475845359494 -1.0066329685420368 -0.9112881027130485 -0.90683201121214152 -0.97629574080642711
leaf_weight=1741.3744457066059 4683.9614567160606 232.37514641880989 1169.5512117445469 1170.1268727183342 297.42483645677567 2224.5458897054195 494.30088949203491 835.85973393917084 128.7561711370945 847.75672739744186 1272.0188650786877 149.86374017596245 454.00462132692337 39545.990029275417 341.75073143839836 1063.6295925676823 280.5387812256813 613.07893708348274 975.74535056948662 69.463090837001801 2080.6306462585926 369.766232162714 2663.9670996963978 1309.6287153661251 2887.8992184996605 494.68466347455978 463.59897089004517 259.81498616933823 301.26257628202438 1389.4537037312984 147.75298327207565 252.52328050136566 675.82598322629929 502.74391710758209 192.84642621874809 894.38526627421379 632.26763620972633 308.36239495873451 1286.9860503971577 652.79954427480698 457.26670017838478 739.53246432542801 1408.0667418837547 48.547408789396286 503.12769109010696 187.08981648087502 491.99824559688568 231.99137243628502 1294.6615300476551 1188.9317978620529 436.92667910456657 383.39020854234695 167.90111735463142 248.30176669359207 387.22794836759567 1034.462769895792 335.61034771800041 438.6536620259285 541.12131536006927 125.49409228563309 13.240202397108076 859.26994687318802 177.30357992649078
leaf_count=9075 24410 1211 6095 6098 1550 11593 2576 4356 671 4418 6629 781 2366 206090 1781 5543 1462 3195 5085 362 10843 1927 13883 6825 15050 2578 2416 1354 1570 7241 770 1316 3522 2620 1005 4661 3295 1607 6707 3402 2383 3854 7338 253 2622 975 2564 1209 6747 6196 2277 1998 875 1294 2018 5391 1749 2286 2820 654 69 4478 924
internal_value=-1.05152 -0.957258 -1.10035 -0.99996 -1.04489 -0.91802 -1.11058 -1.043 -0.938401 -0.971563 -1.06176 -1.11251 -1.01138 -1.11297 -0.923683 -0.993163 -1.00569 -0.977213 -0.947179 -1.03488 -1.09628 -0.981773 -1.07852 -0.910831 -0.886961 -1.03198 -1.03906 -1.01969 -1.01506 -0.966746 -1.04226 -0.900521 -1.07954 -0.955676 -0.958543 -0.940364 -0.988653 -1.04508 -0.952163 -0.924877 -1.05173 -0.957175 -1.05645 -1.09014 -0.943944 -0.956005 -1.05712 -0.996268 -1.00262 -0.900875 -1.01094 -1.05537 -0.984827 -1.03287 -1.09263 -0.909675 -0.976815 -1.01234 -0.97328 -1.06464 -1.09361 -0.923323 -1.01566
internal_weight=88059.4 30050.5 58009 14389.8 9033.08 15660.7 48975.9 5720.34 9455.81 8669.45 4252.22 47628.3 4524.89 47478.4 6855.93 4597.23 3533.6 2599.88 4072.23 2522.93 7932.42 2001.96 4508.19 4724.07 6204.86 2075.07 2453.47 2724.6 942.933 2237.21 1347.62 3316.96 3248.45 1656.94 808.996 1191.04 1468.13 1580.38 2131.86 1092.41 1199.87 1109.3 1830.99 2177.15 1790.11 439.613 1167.82 710.558 1554.48 3533.02 900.526 1552.94 296.657 742.603 2128.6 2344.09 616.149 892.658 1043.87 1533.56 2677.21 1835.02 478.566
internal_count=458913 156605 302308 74991 47075 81614 255233 29811 49278 45180 22160 248210 23581 247429 35729 23958 18415 13549 21222 13148 41339 10433 23494 24619 32336 10814 12786 14199 4914 11659 7023 17286 16929 8635 4216 6207 7651 8236 11110 5693 6253 5781 9542 11346 9329 2291 6086 3703 8101 18412 4693 8093 1546 3870 11093 12216 3211 4652 5440 7992 13952 9563 2494
is_linear=0
shrinkage=1


Tree=1
num_leaves=64
num_cat=0
split_feature=0 16 8 31 2 2 32 2 561 108 41 19 20 14 32 100 12 2 20 20 31 507 5 507 43 100 5 8 36 5 108 5 204 32 682 28 108 20 40 7 5 5 55 12 33 20 74 80 108 36 16 5 89 5 60 5 7 12 60 36 20 36 5
split_gain=143391 16868.6 11548.6 5911.19 3912.94 3182.9 2041.33 1925.1 1572.02 1499.48 1333.67 1027.03 891.301 856.243 792.943 724.878 663.165 622.467 594.023 522.343 466.018 450.567 442.993 441.195 436.19 414.005 386.154 380.757 356.087 355.199 353.227 349.417 309.495 309.325 306.211 287.326 286.077 276.546 274.004 272.55 266.272 263.423 262.741 245.644 240.315 238.927 237.215 230.965 228.104 227.374 212.046 204.709 197.434 196.717 196.642 189.046 185.862 177.581 169.246 165.484 164.495 163.788 160.761
threshold=0.55452898144721996 0.088368874043226256 0.11090780794620515 0.032479701563715942 0.59189507365226757 0.22514545917510989 0.14450191706418994 0.58495062589645397 3.5000000000000004 0.57303446531295787 0.1349982097744942 0.18871864676475528 0.19340486824512484 0.040990933775901801 0.11856114119291307 0.20488575845956805 0.049437118694186218 0.6917204260826112 0.28337888419628149 0.18202328681945804 0.025186007842421535 0.0042953856755048045 0.91196873784065258 0.0039354935288429269 0.093611452728509917 0.19713362306356433 1.2154964804649355 0.077524114400148406 0.1488001570105553 0.91196873784065258 0.55234378576278698 1.7997066378593447 0.080926951020956053 0.042265776544809348 0.2766254991292954 0.42252881824970251 0.60618567466735851 0.17377619445323947 0.11055570468306543 0.34636352956295019 1.5005333423614504 1.7948093414306643 0.023391617462038997 0.047310946509242065 0.1204073764383793 0.22614013403654101 0.056440563872456558 0.071852367371320738 0.63036805391311657 0.30216392874717718 0.1392994895577431 0.80383056402206432 0.11423105746507646 1.5005333423614504 0.47447292506694799 0.73895835876464855 0.2393717095255852 0.049437118694186218 0.55841425061225902 0.11221692711114885 0.16575002670288089 0.14448909461498263 1.3876944780349734
decision_type=8 2 2 8 10 10 10 10 10 8 10 10 10 10 10 2 10 10 10 10 8 10 2 8 10 2 2 2 10 2 10 2 2 10 8 10 10 10 10 10 2 2 8 8 10 10 10 2 10 10 2 2 10 2 10 2 10 10 10 10 10 10 2
left_child=1 3 7 6 11 13 10 12 15 24 27 19 31 26 16 23 51 32 22 43 44 34 28 47 42 38 30 40 52 37 -3 46 45 41 -18 49 -21 -13 -15 48 -1 -9 56 -4 -14 57 -2 -7 -8 60 -22 -11 58 59 -36 -20 -5 -6 -10 -23 -12 -16 -25
right_child=2 5 4 9 17 8 39 33 18 14 35 29 20 25 61 -17 21 -19 55 36 50 53 -24 62 -26 -27 -28 -29 -30 -31 -32 -33 -34 -35 54 -37 -38 -39 -40 -41 -42 -43 -44 -45 -46 -47 -48 -49 -50 -51 -52 -53 -54 -55 -56 -57 -58 -59 -60 -61 -62 -63 -64
leaf_value=-0.041552436826336574 -0.051192330631250255 0.14381086877328281 0.037775529577739601 0.078765502154420824 0.0034546998250363742 -0.040295921662631323 0.065830255041676056 -0.063481477168736075 0.063658264059640909 0.063201182422013349 -0.016023700960790078 0.027917854682384842 -0.03355966580354184 0.028397892379731351 0.070787555734220714 0.092248166706685286 0.058001891165381736 -0.047730545173898492 0.11644894037943565 0.062603477298187188 0.010106375988211432 0.02840698974881712 0.12390285938915634 0.05194189697765033 0.12010162836818679 0.128794367367356 0.16010365563296414 0.0089279537403291667 0.10284162404532629 0.12550606789909027 0.1129454590159381 0.082461164355062774 0.056476773618192103 -0.027996589131613011 -0.0072934172763825036 0.088381586654290745 0.021397463710770299 0.083961360431859478 0.095749298130735919 0.13836826770278593 0.060477139120682415 0.048168254799647259 0.050355608911910703 -0.0094705857909745967 0.022221124073109236 0.0084455289097506367 -0.0083582254515312329 0.024554291969626309 0.02415226994521226 0.062257337995937391 0.078751445526961353 0.11088568426095786 0.02330616561461385 0.12557779598731758 0.030346989597346604 0.14507358035302451 0.11681305705317518 -0.036449652128104602 0.11079741308666161 0.069264163081248789 0.025428386870472941 0.10432441097341275 0.1179239842138211
leaf_weight=2382.5945429950953 4553.7710754573345 3844.5007032454014 356.46666668355465 820.92574042081833 366.28762476146221 196.12528869509697 893.07670465111732 38881.863044217229 850.60974015295506 828.67796987295151 394.01738624274731 370.23966808617115 1310.2477157264948 209.80643655359745 769.47284542024136 903.92501449584961 354.76593635976315 2258.4717385917902 1861.795531719923 820.23542360961437 656.2495916634798 465.28337487578392 911.45910409092903 484.656150624156 1323.4269192218781 788.16927765309811 2589.7629631757736 503.51187393069267 1213.6036035269499 281.19328865408897 1221.4299709796906 51.745306894183159 158.17343953251839 629.44088692963123 957.13037733733654 173.98191560804844 865.84860679507256 542.87331357598305 538.84747762978077 94.156070917844772 65.709680482745171 52.901651710271835 473.77340240776539 1205.5004847496748 226.45928108692169 693.64411303400993 347.9188162535429 457.73731805384159 519.11509019136429 252.24510475993156 135.77522729337215 308.99817511439323 230.55193571746349 94.7132248878479 544.30588845908642 835.71761161088943 527.05699069797993 1167.2857464551926 245.33097368478775 530.2952387034893 609.62538987398148 690.99717423319817 114.03472848236561
leaf_count=12638 24243 18702 1840 4135 1907 1014 4490 209078 4253 4186 2050 1919 6942 1058 3848 4502 1799 12066 9162 4183 3405 2367 4436 2435 6529 3874 12502 2607 6028 1417 6012 258 819 3327 4927 882 4453 2734 2661 475 337 265 2394 6290 1176 3655 1839 2319 2659 1284 689 1536 1154 467 2727 4070 2641 6191 1214 2681 3162 3443 557
internal_value=-8.23044e-05 0.0841952 -0.0484133 0.0444698 0.0031746 0.117291 0.00579026 -0.0584192 0.0948562 0.0706781 -0.0114714 0.0367223 -0.0347937 0.137561 0.0550351 0.058124 0.0437281 -0.0289174 0.107738 0.0221442 -0.00928166 0.0312086 0.0939997 0.0334978 0.0982552 0.103502 0.144398 -0.0306704 0.0832695 0.0763691 0.136369 -0.0467876 -0.0111053 -0.0627676 0.0162237 0.0281628 0.0414431 0.0612374 0.0768744 0.0560013 -0.0388141 -0.0633298 0.0823847 0.00131176 -0.0253394 -0.0159048 -0.048152 0.00510255 0.0505096 0.0198205 0.0218741 0.0761525 0.0653631 0.0567203 0.00635211 0.125317 0.093642 -0.0269187 0.0742106 0.0501696 0.00915482 0.086655 0.0645097
internal_weight=88008.5 32075.9 55932.6 14577.9 9086.22 17498.1 5888.03 46846.4 8305.55 8689.82 4381.69 4442.36 7282.17 9192.52 5544.64 2156.48 4084.17 4643.86 6149.07 3248.05 2328.73 2946.49 3451.56 1252.55 3145.18 1536.82 7655.69 2951.82 2540.1 1194.31 5065.93 4953.44 2385.39 39564.2 1856.2 1429.87 1686.08 913.113 748.654 1506.35 2448.3 38934.8 1821.76 1561.97 1536.71 2227.22 4901.69 653.863 1412.19 1255.89 792.025 1137.68 1326.49 1090.29 1501.44 2697.51 1347.98 1533.57 1095.94 995.579 1003.64 1460.47 598.691
internal_count=458913 160217 298696 74264 47474 85953 30584 251222 41144 43680 22960 22836 38552 44809 27981 10827 20690 24638 30317 16766 12212 14968 17085 6325 15699 7593 37216 15582 12649 6070 24714 26340 12572 212670 9453 7378 8636 4653 3719 7624 12975 209343 9170 8130 8118 11753 26082 3333 7149 6496 4094 5722 6621 5515 7654 13232 6776 8098 5467 5048 5212 7291 2992
is_linear=0
shrinkage=0.05


Tree=2
num_leaves=64
num_cat=0
split_feature=0 16 8 8 2 2 32 561 2 60 14 515 32 31 558 40 5 20 53 16 41 43 41 207 29 5 17 32 207 5 60 20 20 681 47 2 43 36 36 34 5 7 5 20 5 20 20 34 7 60 60 81 7 248 80 5 45 21 5 396 584 399 90
split_gain=127792 15317.7 9359.22 4729.6 3511.78 3130.1 1971.34 1802.39 1495.64 1229.47 1093.07 987.43 896.927 757.397 734.007 723.14 703.008 602.837 582.588 578.105 485.509 485.391 475.323 387.506 380.941 363.607 356.976 346.251 337.684 336.158 306.883 304.614 303.108 298.368 267.768 266.523 260.902 255.748 247.606 236.278 233.738 223.035 220.482 213.875 207.422 206.951 196.221 192.932 191.454 185.397 181.18 174.682 174.082 172.927 164.911 160.072 156.86 156.67 154.787 154.114 140.044 138.642 138.066
threshold=0.56766837835311901 0.065660163760185256 0.10888934880495073 0.055420964956283576 0.26595281064510351 0.62626442313194286 0.11703692376613618 3.5000000000000004 0.60883408784866344 0.47878769040107733 0.054768610745668418 0.0049439214635640391 0.13766182214021686 0.019743247888982299 0.01706543751060963 0.043525371700525291 0.91196873784065258 0.21386016160249713 0.069155514240264906 0.21687126904726031 0.1349982097744942 0.09784137457609178 0.25763575732707983 0.063394427299499526 0.55658817291259777 1.6245213150978091 0.250214233994484 0.11089391633868219 0.022313798777759079 1.6245213150978091 0.47219991683959966 0.1987317577004433 0.21075246483087542 0.47730623185634619 0.046482920646667487 0.7199426293373109 0.069434110075235381 0.27767874300479894 0.17499938607215884 0.19683133065700534 1.5005333423614504 0.46944920718669897 1.7948093414306643 0.22244145721197131 0.91196873784065258 0.16290497779846194 0.17510959506034854 0.028967089019715789 0.30831336975097662 0.50000688433647167 0.47009623050689703 0.53312259912490856 0.2787685245275498 0.11745010688900949 0.054739775136113174 0.91874265670776378 0.36657515168190008 0.21943898499011996 1.7948093414306643 0.15875349938869479 0.6242358684539796 0.2190022021532059 0.057300867512822158
decision_type=8 2 2 2 10 10 10 10 10 10 10 8 10 8 10 10 2 10 2 2 10 10 10 10 10 2 2 10 8 2 10 10 10 8 8 10 10 10 10 10 2 8 2 8 2 10 8 10 8 8 8 2 8 2 2 2 2 10 2 2 10 8 10
left_child=1 3 8 6 10 11 15 14 13 12 19 18 16 27 -6 58 24 28 26 30 39 32 40 46 43 31 -4 54 38 35 44 -15 51 -20 55 53 61 -17 56 -12 57 -18 47 -5 -3 -24 -13 -10 -21 -22 -28 -11 -14 -7 -2 -19 -9 -16 -1 -33 -30 -8 -23
right_child=2 4 5 9 7 29 36 17 42 21 20 23 52 25 22 37 41 34 33 48 49 62 45 -25 -26 -27 50 -29 60 -31 -32 59 -34 -35 -36 -37 -38 -39 -40 -41 -42 -43 -44 -45 -46 -47 -48 -49 -50 -51 -52 -53 -54 -55 -56 -57 -58 -59 -60 -61 -62 -63 -64
leaf_value=-0.046364500897957787 -0.058369228744799787 0.073441569609493371 0.010888412796919902 -0.01284013255293482 0.087736494364969594 -0.026353851729548225 0.010884348046338001 0.022276121591429211 -0.062827626680025381 0.022924326600291089 0.02124563065850928 0.015589210077078437 0.067181861393991557 -0.032543491776442064 -0.03467419164202059 -0.0090024067559073672 0.056450395362589147 0.081010098846589329 0.031980588636203164 0.12486999060430154 0.080984884738208279 0.10599942415905649 0.019596456168494231 0.099374275579433291 0.039987665651257415 0.090476655831932151 0.023896598318212378 -0.0012572745508925638 0.08645172615499723 0.14818315898395967 0.12275386723956171 -0.0022165418055469853 0.080142069935006333 -0.020178949389113545 0.11470638887999939 -0.050857679139352331 0.070977043440496976 0.04383315360119084 0.085308623085063331 0.10582957385011904 0.092498118328230877 0.12220351426499179 0.049853108378972472 0.021032184358950844 0.11075220490781559 0.066220730739930012 0.062133714181163827 -0.033561804501630148 0.14133005423296355 0.11912493873979335 0.073220345972958886 0.064633983717139576 0.11337519593917851 0.06583048863688501 -0.040774688161653944 0.12588615284267174 0.060741287260325461 0.011232643195349638 0.062701135390841739 0.060143252243576042 0.13060502138864866 0.047981160913859705 0.062461411117859356
leaf_weight=2043.1429954022169 3158.6868538558483 781.43454879522324 985.40362392365932 992.0603069961071 626.57827867567539 1780.6218750327826 564.92421992123127 394.26922383904457 36028.613396570086 529.93349571526051 373.33854226768017 387.15206521749496 906.39996767044067 1270.0944390892982 365.41116537153721 1148.1506254076958 502.4692564457655 1299.4491827785969 343.26863303780556 3392.4091227352619 676.29492117464542 1280.5635953694582 391.61780668795109 448.39315767586231 1115.4582001566887 81.444678366184235 289.10160225629807 374.57511669397354 592.25649309158325 24.642606437206268 1597.8544829189777 704.20290531218052 1164.5743524879217 1362.0984124988317 2359.8219101279974 1786.6426362395287 518.85931691527367 286.10634613037109 713.67560918629169 106.00642703473568 58.472572103142738 173.49878519773483 43.819368958473206 878.89111223816872 711.82137852907181 606.75360541045666 545.476572483778 572.09009322524071 3686.227164208889 602.47090612351894 522.98629483580589 476.95054869353771 263.1731470823288 52.369311228394508 2302.6283549368382 234.58641164004803 808.65449871122837 378.22521455585957 33.057416573166847 115.29860386252403 257.74388699233532 454.48377650976181 212.27547337114811
leaf_count=11056 17340 3736 5077 5102 3042 9539 2826 1940 200282 2646 1852 2008 4405 6869 1903 5976 2474 6176 1765 15724 3217 6087 1958 2222 5570 403 1472 1963 2812 124 7453 3660 5659 7058 11105 9792 2543 1430 3428 505 278 824 215 4477 3310 2961 2728 3094 16801 2840 2611 2352 1267 278 12508 1089 3942 1905 161 591 1215 2252 1015
internal_value=-0.000146271 0.0747063 -0.0487915 0.0332437 0.10143 -0.000795192 -0.00508428 0.0780135 -0.0579585 0.0560193 0.119271 0.0253712 0.0394559 -0.0383819 0.0411257 -0.0257664 0.0272823 0.0914554 0.0112547 0.125564 0.082867 0.0778608 0.0249049 0.0611769 0.0168602 -0.0131692 0.0311163 -0.0477614 0.0736096 -0.0358622 0.107524 -0.017209 0.0627721 -0.0096799 0.104135 -0.0371151 0.042114 0.00153726 0.0619765 0.0399512 -0.00375668 0.0733271 -0.062236 0.0030716 0.0912272 0.047932 0.0428122 -0.0623702 0.133442 0.098954 0.0556612 0.0426818 0.0775761 -0.0237201 -0.0509509 0.0878726 0.048134 -0.0113252 -0.0446279 0.00655708 0.0998402 0.0274233 0.0998085
internal_weight=87740 34560.3 53179.6 13545 21015.4 8528.16 5048.72 9087.52 44651.5 8496.25 11927.9 4883.88 4831.95 8006.93 2427.06 3510.46 3662.38 6660.46 3502.86 10169.7 1758.11 3664.3 1800.48 1381.02 2986.41 2171.04 1797.49 5835.89 2766.6 3644.28 3091.11 2089.6 2171.46 1705.37 3893.86 3619.63 1538.27 1434.26 1916.6 479.345 802.109 675.968 36644.5 1870.95 1493.26 998.371 932.629 36600.7 7078.64 1278.77 812.088 1006.88 1169.57 1832.99 5461.32 1534.04 1202.92 743.636 2076.2 819.502 850 1019.41 1492.84
internal_count=458913 167314 291599 68122 99192 44674 26244 43754 246925 41878 55438 24941 24119 43334 12047 18623 18447 31707 17983 47024 8414 17759 9005 6958 15149 11523 9160 31811 13337 19733 14499 11120 10657 8823 18370 19609 7621 7406 9310 2357 4086 3298 203591 9579 7046 4919 4736 203376 32525 6057 4083 4998 5672 9817 29848 7265 5882 3808 11217 4251 4027 5078 7102
is_linear=0
shrinkage=0.05


Tree=3
num_leaves=64
num_cat=0
split_feature=2 12 8 16 40 2 108 32 32 41 2 100 20 20 2 16 515 12 16 31 7 32 43 17 5 50 96 62 5 14 14 12 8 2 21 7 7 272 45 45 36 36 214 22 16 60 157 34 29 5 558 5 29 47 60 34 5 276 33 248 45 276 60
split_gain=114889 12473.7 9203.29 6243.42 3092.73 2612.51 2177.75 1709.18 1130.72 993.842 902.007 854.055 814.72 704.662 685.209 571.069 569.69 460.03 437.545 435.275 416.781 401.147 396.834 339.917 338.358 321.656 315.893 315.122 293.147 288.339 270.786 259.17 256.323 254.346 241.42 233.376 227.025 218.126 214.586 195.332 193.919 189.848 188.661 188.443 182.932 177.793 177.369 175.14 180.587 172.334 168.977 159.694 159.525 157.34 152.784 151.386 148.315 145.971 145.543 139.797 137.636 136.181 135.049
threshold=0.48819822072982794 0.76195868849754345 0.11090780794620515 0.16013576835393908 0.063721586018800749 0.62626442313194286 0.60483825206756603 0.079522807151079192 0.12654086947441104 0.1349982097744942 0.3412498682737351 0.28920227289199835 0.19472502917051318 0.21722204983234408 0.63622456789016735 0.19811432063579562 0.0037807952612638478 0.049437118694186218 0.015320206526666881 0.026193321682512764 0.30427330732345587 0.061295077204704292 0.13124898076057437 0.50027281045913707 1.7948093414306643 0.079579111188650145 0.32836231589317327 0.45466245710849768 1.6245213150978091 0.017952928319573406 0.020669327117502693 0.82107931375503551 0.18338869512081149 0.70467209815979015 0.33723835647106176 0.46944920718669897 0.31786985695362097 0.3227138370275498 0.30451352894306188 0.3557299673557282 0.2002774849534035 0.14448909461498263 0.71349596977233898 0.13791713863611224 0.17192064225673678 0.48937352001667028 0.073424421250820174 0.12232383713126184 0.53481084108352672 0.74218651652336132 0.015034286305308344 1.7948093414306643 0.50263983011245739 0.04445262253284455 0.45089700818061834 0.19476171582937243 1.7974198460578921 0.046567715704441077 0.11286029219627382 0.18561585247516635 0.51960164308547985 0.059624820947647102 0.45869566500186926
decision_type=8 10 2 2 10 10 10 10 10 10 10 2 10 10 10 2 8 8 2 8 8 10 8 2 2 10 2 8 2 10 10 10 2 10 10 10 10 2 2 2 10 10 10 10 2 10 10 10 8 2 10 2 10 10 8 10 2 2 10 2 2 2 8
left_child=1 3 7 6 8 13 9 14 34 16 20 15 24 17 19 27 21 49 45 57 25 32 30 47 26 53 -8 43 33 -12 -11 55 -1 59 -3 39 41 -18 -27 58 52 -20 56 -6 -13 -14 -32 48 -15 60 -10 -16 -28 -5 -31 -9 -21 -2 -19 -7 -4 -36 -41
right_child=2 4 5 10 11 28 12 31 50 22 29 44 18 23 51 -17 37 35 36 42 -22 -23 -24 -25 -26 38 40 -29 -30 54 46 -33 -34 -35 61 -37 -38 -39 -40 62 -42 -43 -44 -45 -46 -47 -48 -49 -50 -51 -52 -53 -54 -55 -56 -57 -58 -59 -60 -61 -62 -63 -64
leaf_value=-0.010703114846429843 -0.058182483689646347 -0.046247463062424964 0.0019625967278592781 0.1027524687951831 -0.025418988531993727 -0.023317654017189368 -0.0048162627101318214 0.0068099341380424248 0.056255469273276265 0.093775537718507843 0.10042065315824733 0.0649910387037054 0.025560084593363036 0.0058340836902509531 -0.062052012759752299 0.073706042491409426 0.046129672199715706 -0.030441732348138947 0.045765407923508895 -0.032843165738158625 0.12639042367648731 0.064860102016867024 0.10937070357318034 0.068326950544964501 0.11156710238306129 0.053360760569872892 0.0016728015359342959 0.042328885416945378 0.13202655149284034 0.028265457300724686 0.07599778603967744 -0.027944233119664319 0.041302080268493385 -0.047871026822407715 -0.026882828809529094 0.11352249617010574 0.10464528602803416 0.090528415668126222 0.097293204112782319 -0.017223278632067452 0.06001581061263276 0.077511185595967313 0.01747212348911252 0.015215933212428699 0.10794427356668118 0.064600814274296606 0.03868342501219442 0.079057315561343572 0.045552171577960189 0.079085923320679152 0.0088517078817428371 0.047427042991053922 0.037081888149335267 0.12192657790607907 0.073311477477838699 0.056271199313327018 0.075550002016728623 -0.043110174791798433 0.042194046908004941 0.066567616612964828 0.045630125206362497 0.021267101168879508 0.017565637761954394
leaf_weight=491.68477167189121 3943.4004546105862 2124.0388030707836 343.39141272008419 1904.4474294632673 516.27443991601467 1519.9507448524237 1026.957885876298 453.21949426829815 353.08451561629772 2075.0462297946215 1068.6705518960953 763.30231660604477 1166.3657162934542 738.17755956947803 33421.875270366669 480.90996268391609 377.0918752104044 914.08453358709812 888.69083875417709 1600.5961277782917 4810.993524312973 671.38194231688976 1929.5882259011269 819.14140629768372 98.135464400053024 363.30431784689426 592.23005224764347 575.59925755858421 26.230154395103455 229.35740588605404 1331.2966281175613 375.65781643986702 457.31010027229786 1935.1130082458258 485.34033912420273 39.911128714680672 386.47704112529755 1038.4081670343876 1183.124716296792 436.6639693826437 415.23522850871086 1001.8827169835567 232.08133621513844 637.76641762256622 367.08843669295311 388.84229198098183 418.60492661595345 146.90459474921227 467.39336858689785 184.13712123036385 402.0664050579071 33.34267321228981 687.1423445045948 2441.5882252901793 1049.9368371218443 234.87263314425945 32.193646997213364 2710.5472419261932 74.592870220541954 44.524645507335663 380.28397695720196 210.55236965417862 772.44071862101555
leaf_count=2512 22369 11643 1721 8550 2677 8223 5211 2363 1696 9607 4896 3688 5766 3723 192176 2230 1820 4778 4255 8694 21074 3207 8793 3913 451 1668 2955 2850 124 1096 6239 2010 2208 10872 2614 190 1785 4867 5363 2274 1987 4728 1229 3197 1674 1850 1991 717 2310 893 1997 160 3319 10901 4895 1174 152 15079 375 228 1882 1094 3930
internal_value=-0.000197434 0.0692358 -0.0475872 0.0838562 0.00900017 -0.00112874 0.0623393 -0.057133 -0.0233223 0.0786731 0.109315 0.0435878 0.0407546 0.0210018 -0.0587192 0.0255102 0.0555266 0.00587775 0.0557643 -0.0460593 0.115471 0.0352827 0.0908844 0.0429084 0.0203548 0.106556 0.0170658 0.0121098 -0.0345028 0.0812499 0.0815586 0.00545757 0.0143576 -0.035751 -0.0378736 -0.00630136 0.0697268 0.0787005 0.0869721 -0.00847732 0.0303267 0.0625886 -0.0247103 -0.0029626 0.0789399 0.0353213 0.0670716 0.0275134 0.0212326 0.0358984 0.0310162 -0.0619429 0.0206908 0.113524 0.0652354 0.023693 -0.030706 -0.0520426 -0.0249616 -0.0207595 0.0249094 -0.0123144 0.00500174
internal_weight=87290.5 35409.8 51880.7 28493.8 6916.02 8842.94 15442.4 43037.8 3575.08 8790.41 13051.4 3340.94 6651.96 5317.12 41974 2210.55 3035.88 3145.51 3832.26 8518.82 10703.5 1620.38 5754.54 2171.62 2819.7 5892.46 2721.57 1729.64 3525.82 2347.96 3824.95 1063.75 948.995 3499.59 2819.93 2237.69 2277.05 1415.5 1546.43 2197.78 1694.61 1890.57 1864.87 1154.04 1130.39 1555.21 1749.9 1352.48 1205.57 907.813 755.151 33455.2 1279.37 4346.04 1279.29 688.092 1632.79 6653.95 988.677 1564.48 723.675 695.893 1209.1
internal_count=458913 167354 291559 131994 35360 46153 73551 245406 19044 41244 58443 16316 32307 26706 239859 10954 14614 16043 18384 47523 47556 7927 26630 10663 13923 26482 13472 8724 19447 10887 17837 5547 4720 19323 15351 11547 10768 6687 7031 11357 8261 8983 10075 5874 5362 7616 8230 6750 6033 4496 3693 192336 6274 19451 5991 3537 8846 37448 5153 8451 3603 3708 6204
is_linear=0
shrinkage=0.05


Tree=4
num_leaves=64
num_cat=0
split_feature=0 16 256 8 2 2 32 32 8 33 29 5 8 33 20 515 41 2 108 53 16 40 277 41 60 19 36 60 7 53 5 60 43 45 72 90 5 20 47 47 5 53 5 207 100 108 145 5 7 505 7 17 41 204 32 49 100 89 60 33 32 32 132
split_gain=103703 12018.8 7549.96 3968.64 2649.55 1848.42 1708.18 1547.08 1463 1070.43 959.019 841.296 823.502 711.962 708.808 704.171 622.744 551.136 531.215 504.596 472.276 400.353 388.851 380.943 378.438 334.89 328.737 309.382 303.781 258.677 254.931 254.23 240.482 235.856 230.99 228.626 212.002 211.984 211.229 209.457 207.406 205.777 186.448 182.311 175.679 174.475 174.13 172.671 156.016 155.471 153.543 152.619 151.495 148.963 142.687 141.932 139.229 138.165 134.708 133.672 133.345 132.148 130.577
threshold=0.5776730775833131 0.065660163760185256 0.045130711048841483 0.055420964956283576 0.26595281064510351 0.62626442313194286 0.10344579815864564 0.041274461895227439 0.056551862508058555 0.13041056692600253 0.33132243156433111 1.7948093414306643 0.039035819470882423 0.11402936652302743 0.16460324823856357 0.0040738498792052278 0.1349982097744942 0.64895191788673412 0.60618567466735851 0.07570254430174829 0.2969231009483338 0.082041919231414809 0.1876323074102402 0.25858667492866522 0.47165443003177648 0.068225290626287474 0.233233317732811 0.46765187382698065 0.28087742626667028 0.078244220465421691 0.91196873784065258 0.49295923113822943 0.069434110075235381 0.39169068634510046 0.12363703921437265 0.057300867512822158 1.6245213150978091 0.17377619445323947 0.07016217336058618 0.048077309504151351 0.91196873784065258 0.038651579990983016 0.71429124474525463 0.050512483343482024 0.15950523316860202 0.56944993138313305 0.015230979770421984 0.73729154467582714 0.46944920718669897 0.14078677445650103 0.33982771635055548 0.054121907800436027 0.25695723295211798 0.057734208181500442 0.33741432428359991 0.18697871267795566 0.19713362306356433 0.10137539356946947 0.48089440166950231 0.14020970463752749 0.093115072697401061 0.23959837853908542 0.80386471748352062
decision_type=8 2 8 2 10 10 10 10 2 10 10 2 2 10 10 8 10 10 10 2 2 10 2 10 8 8 10 10 10 2 2 10 10 2 10 10 2 10 8 8 2 2 2 8 2 10 2 2 10 2 10 2 10 2 10 10 2 10 8 10 10 10 10
left_child=1 3 7 6 12 15 16 11 13 10 26 17 21 23 29 19 36 22 38 31 27 -3 -2 48 43 46 41 30 45 -10 61 -4 54 -7 -21 47 56 -24 50 42 44 -5 -11 60 -26 -17 -9 52 -6 -31 57 -39 -20 -35 -8 -18 -1 -12 -23 -27 -16 -14 -13
right_child=2 4 5 9 8 33 32 25 14 39 18 62 20 -15 24 28 55 -19 35 34 -22 58 37 -25 40 59 -28 -29 -30 49 -32 -33 -34 53 -36 -37 -38 51 -40 -41 -42 -43 -44 -45 -46 -47 -48 -49 -50 -51 -52 -53 -54 -55 -56 -57 -58 -59 -60 -61 -62 -63 -64
leaf_value=-0.047677874627002251 -0.05458547899268576 0.019843459256418894 0.011054272767969279 0.021603404837094158 -0.025970620948831548 -0.040287214916314699 0.0097143589747645479 0.0084574032727917775 0.067892857080145808 0.053219995388473586 0.055690568197401182 0.019411680713522096 0.055759280941796802 0.068368899481358117 0.042813874114510042 0.062920902541974577 0.020475465524489311 -0.061427334013086865 0.012803097643239891 -0.02130982887796215 0.11447963040205565 0.062203189216447186 -0.043100937498635486 0.035180332744413088 0.073409599410504414 0.005422671472664513 0.048930683476094167 0.10456280592504524 0.086467989560118114 0.0092008215039628641 0.098057669113155388 0.053668376612440241 0.059984695848045937 -0.016829183922648813 0.030367847138806872 0.00040965921941296305 0.050850922122037137 -0.029821730772160382 0.086549598796714367 0.09214931809665397 0.11227910838091604 -0.011459111533654082 0.098955471604810316 0.0906270722384213 0.096619554665130891 0.017401565841644345 -0.033860380201189332 0.067466536505604344 0.068100964461501115 0.04918447250292058 0.1016586006169721 0.0079348998338326787 0.047218388754870756 0.049893662668329099 0.048859132402846006 -0.018793662046504161 -0.018480217161953718 0.0048854603261078884 0.097371688624360034 0.062033149215734301 0.077439961933752799 0.096077080241132998 0.11630093564412865
leaf_weight=2025.2864908576012 5809.8366736471653 366.28400993347168 912.45376080274582 810.97877833247185 649.0182246863842 2148.1154605895281 839.67154540121555 343.19447937607765 948.47472855448723 1086.0367438644171 1000.7552203387022 74.677470624446869 949.60749894380569 691.08955514431 835.60527938604355 332.68255074322224 656.55799320340157 31527.743210539222 576.58343037962914 1352.2976222038269 6093.0362504273653 530.16256818175316 1708.9167402237654 583.83869907259941 1494.8782376796007 236.81220403313637 472.8127256333828 2994.1484966874123 399.23195105791092 439.99249419569969 1051.4813895821571 567.77907733619213 580.17007423937321 841.94832879304886 257.39375311136246 425.34667989611626 63.293929651379585 689.51973259449005 909.55374221503735 1069.3470206409693 979.56167243421078 1121.3255807310343 280.36636066436768 478.18907369673252 1793.3631805032492 573.25740393996239 833.41135257482529 463.04681299626827 47.286179557442665 543.36136204004288 156.57960334420204 437.45109833776951 717.91969284415245 92.878210678696632 322.09673881530762 354.25477986037731 511.38922029733658 154.47732321918011 559.79039238393307 186.31850889325142 416.69319950044155 258.58124357461929 65.077981382608414
leaf_count=11373 33812 1750 4601 4002 3364 12204 4151 1834 4363 5035 4672 357 4296 3186 3845 1618 3313 187623 2835 7090 25971 2367 9718 2775 6741 1272 2277 12973 1895 2110 4541 2774 2717 4690 1308 2061 303 3845 4154 4852 4268 5644 1270 2122 7963 2867 4577 2179 216 2523 708 2324 3437 500 1543 1838 2820 730 2459 937 1868 1143 309
internal_value=-0.000239208 0.0626866 -0.0477636 0.0272915 0.0854439 -0.00148304 -0.0069707 -0.0560209 0.0660212 0.0471286 0.0369531 -0.0579345 0.100465 0.0274719 0.0756036 0.0193367 -0.0265892 -0.0583605 0.0508194 0.00632946 0.105007 0.0650676 -0.0471771 0.00539351 0.0840869 -0.00779817 0.011561 0.0940222 0.0501306 0.0492631 0.0800555 0.0273999 0.0336955 -0.031164 -0.0130464 0.0333023 -0.0395364 -0.0319997 0.0680331 0.0755752 0.0920841 0.00241707 0.0626043 0.064364 0.086068 0.0341173 -0.0215171 0.0412627 -0.0195822 0.0312942 0.0551946 -0.0151659 0.0318895 -0.0102 0.0205671 0.006713 -0.0417917 0.0488969 0.0802654 0.0303501 0.0543355 0.0643883 0.0645288
internal_weight=86693.3 37302.3 49391 14597.9 22704.4 7478.04 5352.72 41913 9901.35 9245.13 6809.38 40313.2 12803.1 1971.23 7930.12 4395.1 3610.78 40173.5 4404.26 3089.92 11346.9 1456.24 8645.72 1280.14 5998.29 1599.74 2405.12 5253.82 1305.17 1931.83 2259.67 1480.23 1741.94 3082.94 1609.69 2182.9 2599.97 2835.89 2221.37 2435.75 4267.8 1932.3 1366.4 1730.49 3288.24 905.94 1176.61 1757.55 696.304 983.354 1311.81 1126.97 1294.5 934.827 1161.77 1010.81 2536.68 1155.23 1089.95 423.131 1252.3 1208.19 139.755
internal_count=458913 172758 286155 71914 100844 39547 28058 246608 45344 43856 32699 237988 55500 9541 35803 22153 19647 237322 20776 15773 48924 6576 49699 6355 26807 8620 11923 22953 6380 8996 9980 7375 8411 17394 8398 10512 14496 15887 10264 11157 18972 9646 6305 7835 14704 4485 6411 8451 3580 4633 6110 6169 6272 5190 5694 5151 14193 5402 4826 2209 5713 5439 666
is_linear=0
shrinkage=0.05


Tree=5
num_leaves=64
num_cat=0
split_feature=2 12 8 2 40 2 60 16 32 100 32 34 515 60 47 5 45 20 7 49 20 20 404 16 108 28 45 52 29 5 20 256 204 5 7 47 167 145 0 33 7 19 32 2 72 9 20 62 20 32 60 0 50 45 124 22 20 21 27 212 515 20 25
split_gain=93974.6 10030.1 7508.71 4899.34 2619.25 1937.92 1481.76 1451.51 1394.08 861.252 833.431 778.379 747.393 734 612.547 602.744 542.841 511.391 498.35 465.413 427.257 351.727 336.392 331.606 275.924 268.174 243.265 240.329 240.306 239.206 232.129 228.811 228.765 226.874 226.634 219.909 219.823 218.736 210.664 200.442 199.447 196.452 177.148 176.822 170.106 168.323 164.569 162.798 156.848 155.161 150.434 149.742 149.564 146.86 144.466 136.306 133.23 129.991 128.203 125.692 117.943 117.686 117.366
threshold=0.49871926009655004 0.76195868849754345 0.11090780794620515 0.32934068143367773 0.034821635112166412 0.64237943291664135 0.47878769040107733 0.21687126904726031 0.061295077204704292 0.19713362306356433 0.15655706822872165 0.11496519669890405 0.0038714701076969509 0.4802085161209107 0.07226810604333879 0.91196873784065258 0.32959116995334631 0.17510959506034854 0.42551866173744207 0.1471846476197243 0.19340486824512484 0.22614013403654101 0.32051283121109014 0.17192064225673678 0.62705576419830333 0.28548575937747961 0.36283664405345922 0.035711547359824188 0.43053312599658972 1.7948093414306643 0.20310733467340472 0.087474320083856597 0.068051077425479903 1.6245213150978091 0.42551866173744207 0.058998836204409606 0.38519462943077093 0.015588835347443821 0.66997560858726513 0.1616967245936394 0.46944920718669897 0.25962863862514501 0.20353789627552035 0.67582732439041149 0.063391476869583144 0.86381256580352794 0.27768480777740484 0.44685378670692449 0.25539043545722967 0.10948181152343751 0.50000688433647167 0.42515787482261663 0.091961696743965163 0.41824372112751013 0.11343365162611009 0.16330187022686007 0.23576101660728457 0.1969103887677193 0.18951666355133059 0.93156859278678905 0.0049439214635640391 0.17578456550836566 0.29534389078617101
decision_type=8 10 2 10 10 10 10 2 10 2 10 10 8 10 10 2 2 10 8 10 10 10 10 2 10 10 2 2 10 2 8 10 2 2 8 10 8 2 8 10 8 10 10 10 10 2 10 8 8 10 8 10 10 2 2 10 10 10 8 10 10 10 10
left_child=1 3 8 7 10 15 11 13 16 20 34 12 22 18 21 17 29 26 19 31 51 28 44 50 45 -21 -4 -16 39 43 -14 42 48 38 46 61 52 -10 57 -8 59 -22 -1 56 -5 49 -3 -28 -7 53 -11 -6 -9 -19 -13 -12 -2 -18 -32 -17 -29 -15 -23
right_child=2 4 5 6 9 32 14 36 37 23 55 54 30 35 27 40 33 24 -20 25 41 62 -24 -25 -26 -27 47 60 -30 -31 58 -33 -34 -35 -36 -37 -38 -39 -40 -41 -42 -43 -44 -45 -46 -47 -48 -49 -50 -51 -52 -53 -54 -55 -56 -57 -58 -59 -60 -61 -62 -63 -64
leaf_value=0.030752270328173948 -0.055584873216095537 -0.047850573818780315 -0.030430565872782894 -0.017203278662482949 0.014390727881548436 -0.045092970591028327 0.0006033559096167815 0.10035897020337235 0.02275127860641513 0.022713965146188054 -0.0021257665787396489 0.050547728734466779 0.02534838254999975 0.053598347313279553 0.089944173760352464 0.02396123401022808 -0.035655448312947306 0.0036157907494210116 0.097569032462515456 -0.004181803872195646 0.020029503011397609 0.058021380870751163 0.024400608340290453 0.087903516556023992 0.0019884056932442354 0.046164519626635217 -0.008255250865114484 0.039903362481856913 0.049805025565363925 0.028106684521292974 0.049730006662415047 0.075706051333809435 0.021480967798440106 0.093652992341217683 0.039198169239725286 0.099872224553117131 0.11142463357709805 -0.020734728097221058 -0.048182403654500515 0.07110032668871441 0.11600801372673052 0.069797819825840018 0.06947270189221956 -0.061106653269902271 0.029302269342719206 0.067117460581674379 -0.014069415380794479 0.029749213964566271 -0.016865488472180428 0.07209438415120234 0.055953886181269501 -0.024608065979154763 0.082001785969144342 0.040478194598209449 0.084069895179519682 0.048623532673234937 -0.038491635305576144 -0.00038909262721501295 0.089907262274432881 0.073427568309075028 0.075803712180172456 0.083278369996543505 0.088187575315309644
leaf_weight=708.31168349087238 6869.7365153729916 2131.5133007466793 839.01975141465664 1426.6800795644522 372.17664231359959 2196.0740043818951 614.52719920873642 4321.8868531733751 506.35358665883541 557.39709997177124 221.44082257151604 885.44578883051872 906.14773401618004 435.08261807262897 2090.4819473177195 283.89394593238831 611.50025905668736 578.32995173335075 728.7810298204422 462.20151135325432 708.31679955124855 1185.5224827677011 1151.3687268644571 577.24421608448029 920.49349527060986 618.35153107345104 858.30856521427631 423.6847311258316 1002.6605868339539 78.682804569602013 786.32979887723923 1593.435481056571 166.84507508575916 32.848795339465141 88.604933515191078 2129.4013333022594 3558.1296324431896 674.21391950547695 1962.808859154582 120.620820119977 128.10888881981373 275.373374953866 506.70281980931759 27304.208118289709 228.06284913420677 347.73755514621735 433.92245437204838 419.51447989046574 634.25629426538944 170.89248088002205 874.25484821200371 726.82244491577148 1492.8328462988138 507.12214502692223 504.52928978204727 328.72371043264866 1366.7679679691792 456.25419095158577 265.62473061680794 234.4905788898468 497.31034182012081 1437.4444953501225 442.89090168476105
leaf_count=3310 41302 12234 4460 7259 1796 12772 2968 18121 2601 2702 1066 4015 4297 1939 9234 1402 3503 2884 3135 2240 3506 5307 5436 2515 4615 2812 4427 1958 4555 372 3621 7074 909 158 442 9151 14761 3652 11879 545 578 1231 2246 168501 1121 1664 2372 2079 3626 798 4124 3859 6348 2431 2239 1540 8032 2501 1178 1107 2221 6239 1943
internal_value=-0.000273211 0.0587108 -0.0466047 0.0712993 0.00604257 -0.00329352 0.047297 0.088017 -0.0556063 0.0325542 -0.0278113 0.0297946 0.0201898 0.073208 0.064186 0.014912 -0.0572398 0.00861187 0.0596252 0.0525147 0.0100245 0.0495296 0.00364678 0.0559115 0.0238093 0.0246291 -0.00951283 0.0805688 0.0338843 -0.0589769 0.0438972 0.0632438 -0.0354135 -0.0370428 -0.0394214 0.0888811 0.101636 -0.00208328 -0.0384594 0.0121703 0.0601432 0.0339616 0.0469 -0.0591696 -0.0107937 0.0363312 -0.0421368 0.00422177 -0.0387674 0.02781 0.0430123 -0.0114011 0.0956461 0.0208379 0.0627155 0.028197 -0.0527484 -0.020586 0.059875 0.0463373 0.0592885 0.0763822 0.0662259
internal_weight=85968.7 37820.2 48148.5 30524.4 7295.79 8285.09 12531.9 17992.6 39863.4 4091.59 3204.21 6154.19 4764.21 8619.71 6377.7 5287.91 38682.8 4641.42 4617.78 3889 2082.69 3366.22 2806.11 2008.9 2524.58 1080.55 2116.84 3011.48 1737.81 35619.4 1958.1 2808.45 2997.18 3063.41 2654.04 4001.93 9372.85 1180.57 3030.56 735.148 646.493 983.69 1215.01 35540.7 1654.74 1604.08 2565.44 1277.82 2830.33 1256.34 1431.65 1099 5814.72 1085.45 1389.98 550.165 8236.5 1067.75 1051.95 518.385 920.995 1872.53 1628.41
internal_count=458913 172660 286253 135273 37387 43752 57897 77376 242501 19733 17654 29166 22912 38146 28731 26445 236248 23358 20817 17682 10392 15318 13816 9341 12392 5052 10966 13413 8068 218207 9096 12630 17307 18041 15048 17329 39230 6253 17883 3513 3087 4737 5556 217835 8380 7777 14606 6506 16398 6113 6826 5655 24469 5315 6254 2606 49334 6004 4799 2509 4179 8178 7250
is_linear=0
shrinkage=0.05


Tree=6
num_leaves=64
num_cat=0
split_feature=0 16 8 8 5 2 20 33 20 2 108 17 40 29 41 20 97 2 150 32 20 37 53 204 5 60 108 212 41 49 5 5 29 125 47 53 36 53 14 399 43 100 41 256 74 20 16 90 34 33 404 5 680 36 89 47 7 317 32 29 212 60 132
split_gain=85438.3 9742.17 6398.03 3314.94 2257.48 1957.14 1654.21 1444.12 961.495 939.482 773.82 703.704 595.839 574.667 512.844 462.471 435.106 394.763 375.899 345.747 343.326 331.298 316.915 306.293 304.571 266.607 241.288 237.884 233.011 232.478 230.373 229.77 227.491 223.082 212.073 210.754 207.665 202.914 193.763 191.706 190.349 186.521 173.265 172.096 159.775 157.026 156.757 152.415 152.282 145.476 143.008 140.415 137.239 131.248 130.847 129.756 127.187 122.741 122.271 120.237 119.663 118.916 117.648
threshold=0.58420106768608104 0.065660163760185256 0.092735696583986296 0.054253615438938148 0.91196873784065258 0.64237943291664135 0.16175930947065356 0.14202973991632464 0.218899741768837 0.62626442313194286 0.56011882424354564 0.50027281045913707 0.02472911681979895 0.22312729805707934 0.1349982097744942 0.20925577729940417 0.33135859668254858 0.41664364933967596 0.45926687121391302 0.097454827278852477 0.21075246483087542 0.28309221565723425 0.07570254430174829 0.057734208181500442 1.3876944780349734 0.46071475744247442 0.64009565114974987 0.78040587902069103 0.1349982097744942 0.12988833338022235 1.7997066378593447 0.85945403575897228 0.56663578748703014 0.84638288617134105 0.06133419647812844 0.072295919060707106 0.27767874300479894 0.046809632331132896 0.043680714443326003 0.22054094821214679 0.15105397999286654 0.34253785014152532 0.38176490366458898 0.060499118641018874 0.057375017553567893 0.43506126105785375 0.45801591873168951 0.051461648195981986 0.12378491461277009 0.13868643343448642 0.087121214717626586 1.6245213150978091 0.37990897893905645 0.11112553253769876 0.07352879643440248 0.069194901734590544 0.29390585422515875 0.068066727370023741 0.15312168002128604 0.7149815857410432 0.98654389381408703 0.51615524291992199 0.63044127821922313
decision_type=8 2 2 2 2 10 10 10 8 10 10 2 10 10 10 10 2 10 2 10 10 10 2 2 2 8 10 10 10 10 2 2 10 2 8 2 10 2 10 8 10 2 10 10 10 10 2 10 10 10 10 2 8 10 10 8 10 8 10 10 10 10 10
left_child=1 3 9 7 6 11 13 12 14 15 16 22 -1 19 23 30 28 26 24 42 31 38 33 37 29 -16 55 39 49 -6 44 54 45 48 58 -15 56 -5 -12 -17 46 -9 -3 -31 -2 -7 53 -27 57 -8 -23 -11 -24 -18 -13 -10 -14 61 59 -19 -22 -4 -26
right_child=2 4 5 8 18 32 10 41 17 51 21 20 36 35 25 27 40 34 -20 -21 60 50 52 -25 62 47 -28 -29 -30 43 -32 -33 -34 -35 -36 -37 -38 -39 -40 -41 -42 -43 -44 -45 -46 -47 -48 -49 -50 -51 -52 -53 -54 -55 -56 -57 -58 -59 -60 -61 -62 -63 -64
leaf_value=-0.042969930032776348 -0.049742857197880297 -0.031682914989749282 -0.01506827839406788 0.015095686299851361 0.093943751209296406 -0.046518583778541601 0.003281407815138632 0.017759171574606821 0.065286967172175858 -0.059212175779953038 0.050064308245034307 0.025945674471587528 -0.017410534165057948 0.061982999122559501 0.01134302727683327 -0.032729790736351454 0.063702385017256571 0.0064280826828867228 0.022262696099409118 0.04506503087575036 0.052288795356809727 0.052686742635635025 0.014189979147219509 0.049798566350284429 0.092743696776298512 0.056325694398964357 0.043731363817185745 0.032952383941065373 0.070701253762550667 0.035904825989765299 0.056913760778283029 0.062439447661824576 -0.013184874911295144 0.055484377660297506 0.058018349793133764 0.029105125777107773 0.029754040982411124 -0.019040810513260283 0.016825436242442496 0.0088522288431671023 0.10046863469722417 0.052886197810837046 0.0181061535050101 0.078894725232337093 -0.014283111699471702 0.0062856471770259686 0.099933645602984261 0.02185302756452109 0.063510878811953705 0.065872540019287343 0.076591341332249291 0.023873589574498835 -0.026842067556077671 0.083871647187939879 -0.012105050353549293 0.089851780556223559 0.029946358178571993 0.040216411143928731 0.056564059660383387 0.045657922183337869 0.10467874601401009 0.027893656564517168 0.11138601842186134
leaf_weight=2069.1706096529961 5037.753753900528 557.99920284748077 822.48781511187553 812.29945681989193 3362.8480911999941 2407.2507957071066 290.05647714436054 906.27360199391842 1535.1857929080725 30377.208955168724 1545.2425120025873 448.93555256724358 1303.217930033803 1005.4541447609663 654.46283559501171 1310.1697384417057 1326.6814274340868 735.90981079638004 178.79288594424725 322.9885355681181 730.02880291640759 1037.2901240885258 247.91273464262486 322.92601415514946 1219.6027408987284 1416.7347757667303 922.16693723201752 206.63919243216515 661.959811642766 298.81127989292145 53.344255059957504 233.44988936185837 821.45212976634502 261.01299813389778 762.68844453990459 946.05836223065853 368.19484902918339 938.03495001792908 612.13537615537643 351.55804145336151 1732.1215208768845 648.19761207699776 254.40230357646942 1053.7457889169455 339.05126261711121 149.5365844219923 854.34712864458561 414.438671246171 101.66869017481804 136.53066338598728 1576.6314475536346 50.936175867915154 1144.8744240254164 2057.4909774065018 454.83402620255947 827.25504234433174 159.0884232968092 161.76545608043671 240.14968575537205 265.89045861363411 128.12304370105267 200.29362945258617 2764.8889332562685
leaf_count=12164 30554 2891 4283 3906 13905 14491 1401 4278 6812 194007 6786 2290 6936 4390 3127 7546 5667 3543 812 1446 3390 4606 1271 1496 5012 6360 4233 1096 2858 1323 245 1093 4728 1277 3482 4305 1786 4724 2831 1948 7167 2971 1188 4417 1958 863 3527 1915 486 597 6748 254 6125 8683 2355 3557 804 797 1071 1216 585 993 11337
internal_value=-0.000301471 0.0540514 -0.0464591 0.0229276 0.0740659 -0.00675333 0.0621848 -0.00834358 0.0402463 -0.0552088 0.0706898 0.0133177 -0.0245873 0.0295892 0.0234183 -0.0390982 0.0812029 0.0547507 0.0940277 0.00130589 0.0362352 0.0551357 -0.00223626 0.00505606 0.0955026 0.0387341 0.065422 -0.0176412 0.0521308 0.0869029 -0.046481 0.0182187 -0.0360758 0.0133389 0.0372657 0.0460444 -0.00380787 -0.00319866 0.0406331 -0.0239326 0.0865032 0.0324068 -0.0160915 0.0693973 -0.0475068 -0.0434303 0.0807961 0.0485237 0.00478624 0.0233139 0.0671052 -0.0590731 -0.0195385 0.0759648 0.00679614 0.0738888 -0.0122584 -0.000254044 0.0245214 0.0168402 0.0601107 -0.00665494 0.10568
internal_weight=85138.7 39098.4 46040.3 15302.3 23796.1 8313.63 14917.4 5454.14 9848.14 37726.7 11830.5 4935.39 3899.67 3086.9 4558.9 7298.52 7059.19 5289.25 8878.69 1135.39 1995.37 4771.3 2940.02 2073.26 8699.9 2485.64 3284.61 1868.37 1088.55 4715.41 5430.15 1137.22 3378.24 1547.23 2004.64 1951.51 1830.5 1750.33 2157.38 1661.73 5970.64 1554.47 812.402 1352.56 5376.81 2556.79 4238.52 1831.17 1286.22 426.587 2613.92 30428.1 1392.79 3384.17 903.77 2362.44 1462.31 1184.55 1241.95 1001.8 858.152 1022.78 3984.49
internal_count=458913 176278 282635 74381 101897 45027 65091 28939 45442 237608 50871 24945 21690 14220 21528 43347 29900 23914 36806 5525 9713 20971 15232 10126 35994 11402 14602 10590 4856 19645 32757 5738 20082 7836 9312 8695 9526 8630 9617 9494 25044 7249 4079 5740 32512 15354 17877 8275 6559 1998 11354 194261 7396 14350 4645 10369 7740 6073 5830 4759 3975 5276 16349
is_linear=0
shrinkage=0.05


Tree=7
num_leaves=64
num_cat=0
split_feature=2 16 8 31 2 40 5 49 32 48 32 53 4 29 32 212 549 45 20 36 515 20 5 45 272 62 16 68 7 36 34 5 204 73 41 5 0 32 45 584 60 5 47 148 20 16 157 319 164 5 74 55 80 31 80 22 5 43 558 53 9 272 144
split_gain=77828.9 7912.53 6914.99 4578.28 1820.08 1636.84 1193.91 1190.8 1190.01 886.948 673.368 631.271 601.547 598.482 578.553 525.84 461.646 438.21 374.057 365.231 336.339 332.987 331.949 266.88 260.489 258.765 256.168 240.909 238.551 232.784 232.134 195.909 190.781 188.071 185.447 179.71 175.583 164.089 167.64 163.701 162.108 161.231 171.385 160.037 157.192 156.048 153.571 147.226 135.412 134.965 133.67 136.336 130.109 129.89 128.54 124.561 123.287 121.895 119.536 118.376 114.555 114.096 112.623
threshold=0.49871926009655004 0.14046034216880801 0.092735696583986296 0.032479701563715942 0.65628111362457286 0.034183496609330184 0.91196873784065258 0.12768206745386126 0.042265776544809348 0.11902395263314249 0.11856114119291307 0.07570254430174829 0.12978325039148333 0.31682018935680395 0.18831515312194827 0.84180507063865673 0.86580529808998119 0.33619177341461187 0.16575002670288089 0.22099002450704577 0.0049439214635640391 0.23790628463029864 1.5005333423614504 0.50378152728080761 0.32091803848743444 0.45060046017169958 0.024483064189553264 0.35879695415496832 0.51854535937309276 0.1488001570105553 0.16604245454072955 1.6245213150978091 0.068051077425479903 0.17508758604526523 0.50061988830566417 1.6245213150978091 0.66997560858726513 0.11389097943902017 0.40642143785953527 0.5459507703781129 0.49795366823673254 0.97499993443489086 0.063027121126651778 0.43611858785152441 0.18960629403591159 0.2969231009483338 0.086739212274551405 0.073166426271200194 0.23661457002162936 1.2987166047096255 0.048588039353489883 0.010533615946769716 0.3526716828346253 0.017145009711384777 0.080446299165487303 0.16330187022686007 1.0054062604904177 0.069434110075235381 0.01953173149377108 0.047457169741392143 0.18753962963819507 0.39791122078895574 0.017342654988169674
decision_type=8 2 2 8 10 10 2 10 10 10 10 2 2 10 10 8 2 2 10 10 10 10 2 2 2 10 2 10 10 10 10 2 2 10 10 2 8 10 2 10 10 2 8 2 10 2 10 10 2 2 10 10 2 8 2 10 2 10 10 2 2 2 2
left_child=1 3 8 5 11 10 9 12 17 21 28 16 19 27 18 40 26 31 -7 25 33 29 23 61 59 50 37 -11 44 54 62 53 52 -13 56 39 -19 38 -4 43 49 42 58 -8 -1 -15 -28 -22 -29 -9 51 -5 -6 -2 -3 -12 60 -23 -26 -14 -20 -17 -10
right_child=2 6 4 7 32 14 35 15 30 13 55 20 24 45 -16 22 -18 36 34 -21 47 57 -24 -25 41 -27 46 48 -30 -31 -32 -33 -34 -35 -36 -37 -38 -39 -40 -41 -42 -43 -44 -45 -46 -47 -48 -49 -50 -51 -52 -53 -54 -55 -56 -57 -58 -59 -60 -61 -62 -63 -64
leaf_value=-0.048025488538241221 -0.059034513513301579 -0.0030192144252143924 -0.014523154450998603 0.030244049582714636 -0.046343501356797781 -0.011549869916924395 0.082646977898908291 -0.014683746700003603 -0.0049258128106166397 -0.037625898809770908 -0.0083869526804436923 -0.024382202945543052 0.066937031785284443 0.044099073659574328 0.052736065460318393 0.0061731294375386228 0.062611197624504497 -0.018850024870085982 0.0015169298222026274 0.065540498668386155 0.0048579135897071149 0.072635832688555474 0.097497071267245758 0.054969902915284766 0.081367991670521292 0.055022507365216147 0.049007162010478195 0.01169081951453628 0.052193353887622855 0.073871417325369115 0.024183116032331205 0.012765948371269879 0.016246234953492079 0.02158951836473378 0.048604391098919779 0.10098824491401173 -0.046001814580414184 0.048086871597376846 0.020237588213660729 0.099240771392727689 0.027630996044392377 0.10204328306779996 0.086564649264541452 0.045670804501955688 -0.022454802001245323 0.072605829406803088 0.0072382744207837137 0.051685266022661928 0.070063695079717922 0.043488731558325867 0.054054186012652605 0.00024474823953907589 -0.021320291161808995 -0.048705641918022735 0.049957441519321549 0.03253543579744643 0.062515874640615365 0.089331121351325204 0.05488392318894704 0.033715258695210019 0.032503223795219811 0.035799026773883399 -0.038199316576511634
leaf_weight=1689.7283329218626 28962.907705783844 128.30883371829987 947.50059969723225 952.89208844304085 2161.4939162284136 1191.5990314632654 2492.7379970997572 920.95141787827015 508.15152187645435 222.34529154002666 307.41330441832542 1719.4896663874388 500.44637760519981 1046.7558126598597 1098.3990419209003 705.46953053772449 650.25365427136421 919.16985754668713 1016.3510370105505 1509.5823982805014 485.44833256304264 1782.1593162566423 229.42135855555534 919.79344210028648 626.23624275624752 1066.5563323944807 684.50028711557388 529.20533512532711 73.844438135623932 1496.2143694609404 380.89692451059818 98.23999397456646 157.24366930127144 255.53665769100189 545.2816150188446 3166.0309465378523 1690.490077495575 185.2787116765976 547.13697142899036 1395.0987823456526 447.91810046136379 548.66966065764427 1337.9730467945337 331.5508287101984 932.79769180715084 886.7515055835247 324.33157670497894 256.5622181892395 122.31469333171844 111.81251189112663 313.61327315866947 628.54551854729652 683.80833542346954 3401.1927391439676 1064.0287023633718 470.6310637742281 124.28687551617622 2828.4582833349705 1332.8711471110582 577.63556146621704 422.17080728709698 602.57598426938057 509.1058191806078
leaf_count=10138 191244 631 4944 4298 13387 6147 10152 4506 2824 1202 1488 9226 2188 4541 4887 3263 3053 5321 5032 6545 2420 7466 961 4071 2696 4614 3196 2399 335 6297 1933 488 874 1294 2506 12785 10870 865 2701 5687 2019 2297 5706 1411 5224 3720 1555 1195 521 488 1409 2953 4063 21821 4562 2178 569 11619 5843 2649 1957 2700 2979
internal_value=-0.000324228 0.0518095 -0.0446356 0.0312751 -0.00553698 0.0010405 0.0767033 0.0491272 -0.0543471 0.0655367 -0.0246107 0.0102441 0.0588014 0.0416528 0.0213045 0.026047 0.0248061 -0.0561504 0.0108416 0.0455245 -0.00765145 0.0747228 0.0402299 0.0343326 0.0708577 0.035322 0.0156632 0.00731317 -0.0364348 0.0607376 -0.0091115 -0.057735 -0.0373668 -0.0184342 0.0234983 0.0919842 -0.0364385 0.00370346 -0.00179841 0.085228 0.00250965 0.0769468 0.0727704 0.0783062 -0.0389303 0.0571729 0.0355788 0.0210492 0.0226496 -0.00838569 0.0242343 0.0183208 -0.0403297 -0.057949 0.0442566 0.0163666 0.0147386 0.0828778 0.0633497 0.0491368 0.0106106 0.0198209 -0.0215782
internal_weight=84226.2 38697.4 45528.7 21205.5 9058.58 7872.5 17492 13333 36470.2 10106.5 3474.41 6056.04 9395.02 2807.37 4398.09 3937.94 3339 35072 3299.69 4471.19 2717.04 7299.17 2457.26 2227.84 4923.83 2961.61 2688.75 873.865 2696.37 2688.55 1398.15 32462.3 3002.55 1975.03 2108.09 7385.42 2609.66 1679.92 1494.64 4219.39 1480.68 3845.75 3297.08 2824.29 2622.53 1933.51 1008.83 742.011 651.52 1032.76 1895.05 1581.44 2845.3 32364.1 1192.34 778.044 1562.81 4610.62 1959.11 1078.08 1438.52 1308.05 1017.26
internal_count=458913 172660 286253 99667 48773 40461 72993 59206 237480 42958 19363 30449 41198 12383 21098 18008 16314 229744 16211 19819 14135 30575 10995 10034 21379 13274 13261 4122 15697 11490 7736 213553 18324 10520 10064 30035 16191 8510 7645 17250 7013 16542 14245 11563 15362 8261 4751 3615 2920 4994 8660 7251 17450 213065 5193 3666 7558 19085 8539 4837 6989 5963 5803
is_linear=0
shrinkage=0.05


Tree=8
num_leaves=64
num_cat=0
split_feature=0 16 31 31 2 2 32 31 20 0 40 20 20 14 88 0 34 214 60 100 17 45 47 32 167 108 41 214 16 277 108 14 20 140 212 32 17 5 36 68 515 214 5 212 49 204 27 680 20 60 396 60 36 47 20 92 52 681 507 12 62 72 47
split_gain=71226.1 8658.97 4766.44 3042.83 1990.33 1387.31 1225.74 1084.34 917.26 641.631 627.696 623.82 610.285 586.966 488.344 414.748 385.005 358.111 355.249 309.884 297.071 289.72 288.812 282.153 279.594 268.352 250.603 240.885 233.679 227.278 223.467 222.506 210.347 201.048 198.825 188.994 185.053 183.678 167.585 165.082 159.214 141.304 136.016 134.254 133.795 130.783 127.692 125.749 124.396 124.304 122.652 120.338 118.162 116.225 115.442 107.06 105.824 105.51 105.305 104.226 103.813 103.77 99.4663
threshold=0.60078018903732311 0.065660163760185256 0.035891536623239524 0.024230526760220531 0.27096438407897955 0.65628111362457286 0.09895737469196321 0.050124499946832664 0.218899741768837 0.70241084694862377 0.042871363461017616 0.21722204983234408 0.16845739632844928 0.040024911984801299 0.065908998250961318 0.49806192517280584 0.083886619657278075 0.85988116264343273 0.4532023966312409 0.20488575845956805 0.50027281045913707 0.41824372112751013 0.048646269366145141 0.09895737469196321 0.38519462943077093 0.60342484712600719 0.25985725224018102 0.83376482129096996 0.33244213461875921 0.17070199549198153 0.60998070240020763 0.02000384405255318 0.14280740171670916 0.22322721779346469 0.94941365718841564 0.15312168002128604 0.50473546981811535 1.7948093414306643 0.14023736864328387 0.47786776721477514 0.0040738498792052278 0.85453674197196972 1.2987166047096255 0.95459324121475231 0.20392604917287829 0.057734208181500442 0.086901240050792708 0.2470141872763634 0.18960629403591159 0.48220072686672216 0.15932974964380267 0.48605561256408697 0.15318264812231067 0.058998836204409606 0.25065563619136816 0.03027364052832127 0.026330364868044857 0.26508601009845739 0.0039354935288429269 0.049437118694186218 0.48430404067039495 0.074451435357332243 0.10305713862180711
decision_type=8 2 8 8 10 10 10 8 10 10 10 10 10 10 10 10 10 10 8 2 2 2 10 10 8 10 10 10 2 2 10 10 8 10 10 10 2 2 10 10 10 10 2 10 10 2 8 8 10 8 2 10 10 8 10 2 2 8 10 10 10 10 8
left_child=1 3 9 6 13 11 10 12 15 16 48 17 39 24 31 30 29 36 47 28 49 61 35 26 33 -8 -14 44 51 -2 55 -9 -16 43 54 40 -4 -11 -33 -6 59 -31 53 -3 -12 62 -19 -10 -1 -13 -18 -15 -32 -34 -7 -5 -24 -27 -49 -20 -23 -17 -38
